{"ip":0,"fr":60,"v":"5.1.20","assets":[],"layers":[{"ty":4,"nm":"Barra inferior","ip":0,"st":0,"ind":6,"hix":3,"ks":{"o":{"a":0,"k":100},"or":{"a":0,"k":[0,0,0]},"a":{"a":0,"k":[114.5,59,0]},"p":{"s":true,"x":{"a":1,"k":[{"t":0,"s":[142.5],"e":[142.5],"i":{"x":[1],"y":[1]},"o":{"x":[0],"y":[0]}},{"t":10,"s":[142.5],"e":[177.5],"i":{"x":[0.515],"y":[0.955]},"o":{"x":[0.455],"y":[0.03]}},{"t":100,"s":[177.5],"e":[142.5],"i":{"x":[0.515],"y":[0.955]},"o":{"x":[0.455],"y":[0.03]}},{"t":180}]},"y":{"a":1,"k":[{"t":0,"s":[437],"e":[437],"i":{"x":[1],"y":[1]},"o":{"x":[0],"y":[0]}},{"t":10,"s":[437],"e":[397],"i":{"x":[0.515],"y":[0.955]},"o":{"x":[0.455],"y":[0.03]}},{"t":100,"s":[397],"e":[437],"i":{"x":[0.515],"y":[0.955]},"o":{"x":[0.455],"y":[0.03]}},{"t":180}]}},"rx":{"a":0,"k":0},"ry":{"a":0,"k":0},"rz":{"a":0,"k":0},"s":{"a":0,"k":[100,100,100]}},"shapes":[{"ty":"gr","nm":"Barra inferior shape group","it":[{"ty":"rc","s":{"a":0,"k":[20.1928,20.1928]},"r":{"a":0,"k":4},"p":{"a":0,"k":[10.0964,10.0964]}},{"ty":"st","o":{"a":0,"k":0},"w":{"a":0,"k":0},"c":{"a":0,"k":[0,0,0,0]},"lc":3,"lj":1,"ml":1},{"ty":"fl","o":{"a":0,"k":100},"r":1,"c":{"a":0,"k":[0.39215686274509803,0.42745098039215684,0.4392156862745098,1]}},{"ty":"tr","o":{"a":0,"k":100},"a":{"a":0,"k":[0,0]},"s":{"a":0,"k":[100,86.6]},"p":{"a":0,"k":[120.212,28.032]},"r":{"a":0,"k":15.01149423242757}}]},{"ty":"gr","nm":"Barra inferior shape group","it":[{"ty":"rc","s":{"a":0,"k":[20.1928,20.1928]},"r":{"a":0,"k":4},"p":{"a":0,"k":[10.0964,10.0964]}},{"ty":"st","o":{"a":0,"k":0},"w":{"a":0,"k":0},"c":{"a":0,"k":[0,0,0,0]},"lc":3,"lj":1,"ml":1},{"ty":"fl","o":{"a":0,"k":15},"r":1,"c":{"a":0,"k":[0.8196078431372549,0.8196078431372549,0.8196078431372549,1]}},{"ty":"tr","o":{"a":0,"k":100},"a":{"a":0,"k":[0,0]},"s":{"a":0,"k":[100,86.6]},"p":{"a":0,"k":[171.633,57.914]},"r":{"a":0,"k":15.01149423242757}}]},{"ty":"gr","nm":"Barra inferior shape group","it":[{"ty":"rc","s":{"a":0,"k":[20.1928,20.1928]},"r":{"a":0,"k":4},"p":{"a":0,"k":[10.0964,10.0964]}},{"ty":"st","o":{"a":0,"k":0},"w":{"a":0,"k":0},"c":{"a":0,"k":[0,0,0,0]},"lc":3,"lj":1,"ml":1},{"ty":"fl","o":{"a":0,"k":15},"r":1,"c":{"a":0,"k":[0.8196078431372549,0.8196078431372549,0.8196078431372549,1]}},{"ty":"tr","o":{"a":0,"k":100},"a":{"a":0,"k":[0,0]},"s":{"a":0,"k":[100,86.6]},"p":{"a":0,"k":[141.76,49.911]},"r":{"a":0,"k":15.01149423242757}}]},{"ty":"gr","nm":"Barra inferior shape group","it":[{"ty":"rc","s":{"a":0,"k":[20.1928,20.1928]},"r":{"a":0,"k":4},"p":{"a":0,"k":[10.0964,10.0964]}},{"ty":"st","o":{"a":0,"k":0},"w":{"a":0,"k":0},"c":{"a":0,"k":[0,0,0,0]},"lc":3,"lj":1,"ml":1},{"ty":"fl","o":{"a":0,"k":15},"r":1,"c":{"a":0,"k":[0.8196078431372549,0.8196078431372549,0.8196078431372549,1]}},{"ty":"tr","o":{"a":0,"k":100},"a":{"a":0,"k":[0,0]},"s":{"a":0,"k":[100,86.6]},"p":{"a":0,"k":[82.013,33.904]},"r":{"a":0,"k":15.01149423242757}}]},{"ty":"gr","nm":"Barra inferior shape group","it":[{"ty":"rc","s":{"a":0,"k":[164.328,36.8615]},"r":{"a":0,"k":9},"p":{"a":0,"k":[82.293428,18.913782]}},{"ty":"st","o":{"a":0,"k":100},"c":{"a":0,"k":[1,1,1,0]},"lc":3,"lj":1,"ml":1,"w":{"a":0,"k":1}},{"ty":"fl","o":{"a":0,"k":0},"c":{"a":0,"k":[0,0,0,0]},"r":1},{"ty":"tr","o":{"a":0,"k":100},"a":{"a":0,"k":[0,0]},"s":{"a":0,"k":[100,86.6]},"p":{"a":0,"k":[48.37,16.984]},"r":{"a":0,"k":15.01149423242757}}]},{"ty":"gr","nm":"Barra inferior shape group","it":[{"ty":"rc","s":{"a":0,"k":[20.1928,20.1928]},"r":{"a":0,"k":4},"p":{"a":0,"k":[10.0964,10.0964]}},{"ty":"st","o":{"a":0,"k":0},"w":{"a":0,"k":0},"c":{"a":0,"k":[0,0,0,0]},"lc":3,"lj":1,"ml":1},{"ty":"fl","o":{"a":0,"k":15},"r":1,"c":{"a":0,"k":[0.8196078431372549,0.8196078431372549,0.8196078431372549,1]}},{"ty":"tr","o":{"a":0,"k":100},"a":{"a":0,"k":[0,0]},"s":{"a":0,"k":[100,86.6]},"p":{"a":0,"k":[52.14,25.901]},"r":{"a":0,"k":15.01149423242757}}]}],"op":180},{"ty":4,"nm":"Search Module","ip":0,"st":0,"ind":5,"hix":1,"ks":{"o":{"a":0,"k":100},"or":{"a":0,"k":[0,0,0]},"a":{"a":0,"k":[127,58.5,0]},"p":{"s":true,"x":{"a":1,"k":[{"t":0,"s":[325],"e":[304.5],"i":{"x":[0.515],"y":[0.955]},"o":{"x":[0.455],"y":[0.03]}},{"t":90,"s":[304.5],"e":[325],"i":{"x":[0.515],"y":[0.955]},"o":{"x":[0.455],"y":[0.03]}},{"t":180}]},"y":{"a":1,"k":[{"t":0,"s":[241.5],"e":[194],"i":{"x":[0.515],"y":[0.955]},"o":{"x":[0.455],"y":[0.03]}},{"t":90,"s":[194],"e":[241.5],"i":{"x":[0.515],"y":[0.955]},"o":{"x":[0.455],"y":[0.03]}},{"t":180}]}},"rx":{"a":0,"k":0},"ry":{"a":0,"k":0},"rz":{"a":0,"k":0},"s":{"a":0,"k":[100,100,100]}},"shapes":[{"ty":"gr","nm":"Search Module shape group","it":[{"ty":"sh","ks":{"a":0,"k":{"c":true,"v":[[194.328,68.104],[193.058,63.3618],[196.636,61.222],[197.866,57.9566],[195.168,55.7439],[190.119,55.8812],[185.679,58.2865],[184.448,61.5519],[187.146,63.7646],[191.312,63.8296],[192.584,68.5705],[192.608,68.6073],[192.657,68.631],[192.723,68.638],[192.796,68.6272],[194.173,68.259],[194.241,68.2322],[194.295,68.1932],[194.325,68.1482]],"i":[[0.003999999999990678,0.013900000000006685],[0,0],[-0.8959999999999866,0.8956000000000017],[0.27499999999997726,1.0349000000000004],[1.461999999999989,0.3919000000000068],[1.7909999999999968,-0.4797000000000011],[1.0720000000000027,-1.072099999999999],[-0.27700000000001523,-1.0335999999999999],[-1.4639999999999986,-0.3924000000000021],[-1.4890000000000043,0.28249999999999886],[0,0],[-0.012000000000000455,-0.010399999999989973],[-0.019000000000005457,-0.0053000000000054115],[-0.02400000000000091,0.0005999999999914962],[-0.025000000000005684,0.006500000000002615],[0,0],[-0.021000000000015007,0.011199999999988108],[-0.014999999999986358,0.014399999999994861],[-0.006000000000000227,0.015299999999996317]],"o":[[0,0],[1.4320000000000164,-0.4993000000000052],[1.0720000000000027,-1.072099999999999],[-0.27600000000001046,-1.0348000000000042],[-1.4629999999999939,-0.3918999999999997],[-1.7920000000000016,0.47930000000000206],[-1.070999999999998,1.0708000000000055],[0.27599999999998204,1.034799999999997],[1.224000000000018,0.3277999999999963],[0,0],[0.002999999999985903,0.013900000000006685],[0.01300000000000523,0.010300000000000864],[0.01999999999998181,0.005200000000002092],[0.02400000000000091,-0.0007000000000090267],[0,0],[0.02400000000000091,-0.006399999999999295],[0.020999999999986585,-0.011300000000005639],[0.014000000000010004,-0.014400000000009072],[0.006000000000000227,-0.015299999999996317]]}}},{"ty":"sh","ks":{"a":0,"k":{"c":true,"v":[[191.932,62.6467],[188.162,62.7486],[186.147,61.0967],[187.066,58.6583],[190.382,56.8618],[194.152,56.7599],[196.167,58.4117],[195.248,60.8501]],"i":[[1.3380000000000223,-0.3586000000000027],[1.0929999999999893,0.2926000000000002],[0.20900000000000318,0.7728999999999999],[-0.7990000000000066,0.7994000000000057],[-1.3379999999999939,0.3584999999999994],[-1.0919999999999845,-0.2926000000000002],[-0.2050000000000125,-0.7737000000000052],[0.7990000000000066,-0.7992999999999952]],"o":[[-1.339999999999975,0.357999999999997],[-1.092000000000013,-0.292500000000004],[-0.20599999999998886,-0.7736999999999981],[0.8000000000000114,-0.7993999999999986],[1.3400000000000034,-0.3580000000000041],[1.092000000000013,0.2924999999999969],[0.20599999999998886,0.7737999999999943],[-0.799999999999983,0.7994000000000057]]}}},{"ty":"st","o":{"a":0,"k":0},"w":{"a":0,"k":0},"c":{"a":0,"k":[0,0,0,0]},"lc":3,"lj":1,"ml":1},{"ty":"fl","o":{"a":0,"k":80},"r":1,"c":{"a":0,"k":[1,1,1,1]}},{"ty":"tr","o":{"a":0,"k":100},"a":{"a":0,"k":[0,0]},"s":{"a":0,"k":[100,100]},"p":{"a":0,"k":[0,0]},"r":{"a":0,"k":0}}]},{"ty":"gr","nm":"Search Module shape group","it":[{"ty":"rc","s":{"a":0,"k":[30.2058,30.2058]},"r":{"a":0,"k":6},"p":{"a":0,"k":[15.1029,15.1029]}},{"ty":"st","o":{"a":0,"k":0},"w":{"a":0,"k":0},"c":{"a":0,"k":[0,0,0,0]},"lc":3,"lj":1,"ml":1},{"ty":"fl","o":{"a":0,"k":20},"r":1,"c":{"a":0,"k":[0.7686274509803922,0.7686274509803922,0.7686274509803922,1]}},{"ty":"tr","o":{"a":0,"k":100},"a":{"a":0,"k":[0,0]},"s":{"a":0,"k":[100.1,86.7]},"p":{"a":0,"k":[187.732,46.972]},"r":{"a":0,"k":15.01149423242757}}]},{"ty":"gr","nm":"Search Module shape group","it":[{"ty":"sh","ks":{"a":0,"k":{"c":true,"v":[[52.771,27.6788],[53.9999,27.7818],[54.8732,27.4016],[55.1001,27.0423],[54.9372,26.6754],[54.2232,26.1825],[53.3998,25.6225],[53.0853,25.0319],[53.4731,24.3277],[55.0324,23.5927],[57.096,23.7146],[58.259,24.2147],[58.854,24.8266],[57.8469,25.2302],[57.3496,24.7414],[56.4777,24.3624],[55.3555,24.2556],[54.6759,24.5746],[54.5051,24.922],[54.7774,25.2751],[55.52,25.7542],[56.2842,26.3144],[56.55,26.9243],[56.1155,27.6752],[54.9565,28.3559],[53.538,28.5307],[52.1209,28.3288],[50.86,27.7648],[50.2935,27.0582],[51.4271,26.7047],[51.8928,27.2765]],"i":[[-0.3599000000000032,-0.09639999999999915],[-0.3742999999999981,0.050499999999999545],[-0.20400000000000063,0.20400000000000063],[-0.021000000000000796,0.10929999999999751],[0.13630000000000564,0.1335000000000015],[0.3464000000000027,0.1933000000000007],[0.20759999999999934,0.1849000000000025],[0.006000000000000227,0.20990000000000109],[-0.2606000000000037,0.26060000000000016],[-0.6600000000000037,0.11049999999999827],[-0.7157999999999944,-0.19180000000000064],[-0.2723000000000013,-0.198599999999999],[-0.1214999999999975,-0.2120999999999995],[0,0],[0.20879999999999654,0.1493000000000002],[0.3792000000000044,0.10149999999999793],[0.2954000000000008,-0.05010000000000048],[0.16430000000000433,-0.16430000000000078],[-0.010799999999996146,-0.10699999999999932],[-0.1640999999999977,-0.13019999999999854],[-0.32800000000000296,-0.19209999999999994],[-0.19030000000000058,-0.18740000000000023],[0.013100000000001444,-0.2190999999999974],[0.2833000000000041,-0.2832000000000008],[0.4526000000000039,-0.1336999999999975],[0.4958000000000027,0.0143000000000022],[0.4527000000000001,0.12129999999999797],[0.2834000000000003,0.22669999999999746],[0.09809999999999519,0.2453000000000003],[0,0],[-0.21889999999999787,-0.1734999999999971]],"o":[[0.44489999999999696,0.1191999999999993],[0.37820000000000675,-0.049500000000001876],[0.1303000000000054,-0.13019999999999854],[0.027700000000002944,-0.11110000000000042],[-0.1296999999999997,-0.13530000000000086],[-0.34140000000000015,-0.18850000000000122],[-0.20369999999999777,-0.18389999999999773],[-0.0020999999999986585,-0.20889999999999986],[0.37950000000000017,-0.37950000000000017],[0.6599000000000004,-0.11050000000000182],[0.5031000000000034,0.13479999999999848],[0.2751999999999981,0.19579999999999842],[0,0],[-0.1226999999999947,-0.17660000000000053],[-0.2021000000000015,-0.15109999999999957],[-0.4527000000000001,-0.12130000000000152],[-0.28880000000000194,0.048399999999997334],[-0.12460000000000093,0.12460000000000093],[0.01740000000000208,0.10519999999999996],[0.1670999999999978,0.1274000000000015],[0.31919999999999504,0.18599999999999994],[0.19030000000000058,0.1875],[-0.006399999999999295,0.21740000000000137],[-0.3200999999999965,0.32010000000000005],[-0.4497999999999962,0.13090000000000046],[-0.49209999999999354,-0.013300000000000978],[-0.5572000000000017,-0.14920000000000044],[-0.27960000000000207,-0.22579999999999956],[0,0],[0.09159999999999968,0.20759999999999934],[0.22560000000000002,0.17180000000000106]]}}},{"ty":"sh","ks":{"a":0,"k":{"c":true,"v":[[59.9082,27.7917],[59.3788,29.0128],[60.2388,29.6687],[61.1823,29.7922],[62.2575,29.7032],[62.2483,30.3525],[60.8564,30.486],[59.5454,30.3179],[58.2773,29.6065],[58.1265,28.521],[59.0194,27.2088],[60.5569,26.0909],[62.3399,25.5073],[64.0968,25.5902],[65.3651,26.6841],[64.4311,28.4863],[64.2044,28.7057],[64,28.8879]],"i":[[0,0],[-0.10900000000000176,-0.31289999999999907],[-0.46049999999999613,-0.12330000000000041],[-0.32329999999999615,-0.0004000000000026205],[-0.39339999999999975,0.05980000000000274],[0,0],[0.47449999999999903,0.00140000000000029],[0.4024000000000001,0.10779999999999745],[0.23400000000000176,0.3105000000000011],[-0.1268000000000029,0.41140000000000043],[-0.46459999999999724,0.464500000000001],[-0.5745999999999967,0.2948999999999984],[-0.610199999999999,0.09509999999999863],[-0.5609999999999999,-0.15029999999999788],[-0.056200000000004025,-0.5178000000000011],[0.6855000000000047,-0.6854000000000013],[0.07459999999998956,-0.06980000000000075],[0.061599999999998545,-0.05169999999999675]],"o":[[-0.4619,0.501100000000001],[0.11290000000000333,0.3139000000000003],[0.3056000000000054,0.08189999999999742],[0.32339999999999947,0.0004999999999988347],[0,0],[-0.45349999999999824,0.09040000000000248],[-0.47160000000000224,-0.004300000000000637],[-0.6114000000000033,-0.16380000000000194],[-0.2272999999999996,-0.31230000000000047],[0.13069999999999737,-0.41029999999999944],[0.4504000000000019,-0.4502999999999986],[0.5784999999999982,-0.2940000000000005],[0.6103000000000023,-0.09500000000000242],[0.7894000000000005,0.21140000000000114],[0.06279999999999575,0.5159999999999982],[-0.0764999999999958,0.07649999999999935],[-0.0747000000000071,0.06970000000000098],[0,0]]}}},{"ty":"sh","ks":{"a":0,"k":{"c":true,"v":[[63.4711,26.2306],[62.0459,26.2797],[60.5031,27.1969],[63.5443,28.0117],[64.1705,26.8704]],"i":[[0.44890000000000185,0.12020000000000053],[0.5128999999999948,-0.1498999999999988],[0.5155999999999992,-0.4616000000000007],[0,0],[0.024199999999993338,0.30460000000000065]],"o":[[-0.43719999999999715,-0.11720000000000041],[-0.5130000000000052,0.14990000000000236],[0,0],[0.4416000000000011,-0.45630000000000237],[-0.017400000000009186,-0.30630000000000024]]}}},{"ty":"sh","ks":{"a":0,"k":{"c":true,"v":[[69.5437,31.5583],[69.2689,31.9802],[69.4561,32.2566],[68.634,32.7475],[68.0854,32.3688],[68.0746,31.8057],[66.7672,32.0534],[65.5131,31.9167],[64.4387,31.1441],[64.9117,29.9941],[66.7253,29.1225],[69.2509,29.3197],[70.1389,29.5576],[70.4789,29.2177],[70.7602,28.4581],[69.9167,27.9843],[69.136,27.8452],[68.0796,27.783],[68.39,27.1121],[69.7006,27.1777],[70.7436,27.3709],[72.1129,28.2387],[71.6299,29.4722]],"i":[[0,0],[0.004699999999999704,-0.10289999999999822],[-0.1268000000000029,-0.08419999999999561],[0,0],[0.11269999999998959,0.15229999999999677],[-0.10150000000000148,0.22419999999999618],[0.4414999999999907,-0.0146000000000015],[0.39460000000001116,0.1056999999999988],[0.10099999999999909,0.3501999999999974],[-0.4163999999999959,0.41639999999999944],[-0.7445000000000022,0.11650000000000205],[-0.9325000000000045,-0.24980000000000047],[0,0],[0,0],[0.12120000000000175,0.19769999999999754],[0.4449999999999932,0.11929999999999907],[0.315400000000011,0.03780000000000072],[0.39270000000000493,0.004699999999999704],[0,0],[-0.3935999999999922,-0.04800000000000182],[-0.30180000000000007,-0.08089999999999975],[-0.1273999999999944,-0.36810000000000187],[0.4531999999999954,-0.4532000000000025]],"o":[[-0.17849999999999966,0.1783999999999999],[-0.001999999999995339,0.10010000000000119],[0,0],[-0.25310000000000343,-0.10020000000000095],[-0.10870000000001312,-0.1512000000000029],[-0.43010000000001014,0.1504999999999974],[-0.44140000000000157,0.014599999999994395],[-0.6151999999999873,-0.1647999999999996],[-0.10099999999999909,-0.3503000000000007],[0.46460000000000434,-0.464500000000001],[0.7513000000000005,-0.11839999999999762],[0,0],[0,0],[0.30870000000000175,-0.30870000000000175],[-0.1174000000000035,-0.1966000000000001],[-0.20510000000000161,-0.05489999999999995],[-0.3114999999999952,-0.0367999999999995],[0,0],[0.4801999999999964,-0.004300000000000637],[0.39350000000000307,0.0478999999999985],[0.785499999999999,0.21039999999999992],[0.13120000000000687,0.3691999999999993],[0,0]]}}},{"ty":"sh","ks":{"a":0,"k":{"c":true,"v":[[66.4383,31.3889],[67.4181,31.4467],[68.5244,31.172],[69.6078,30.0887],[68.7953,29.871],[67.1776,29.7446],[66.117,30.2901]],"i":[[-0.7467000000000041,-0.20009999999999906],[-0.37069999999999936,0.0370999999999988],[-0.3628999999999962,0.14699999999999847],[0,0],[0,0],[0.4322999999999979,-0.08889999999999887],[0.2775999999999925,-0.2775999999999996]],"o":[[0.28249999999999886,0.07570000000000121],[0.37470000000000425,-0.03610000000000113],[0,0],[0,0],[-0.6461999999999932,-0.17309999999999803],[-0.42950000000000443,0.08610000000000184],[-0.5326000000000022,0.5324000000000026]]}}},{"ty":"sh","ks":{"a":0,"k":{"c":true,"v":[[71.024,33.2585],[71.6274,32.6552],[72.556,32.904],[75.8276,29.6326],[74.899,29.3838],[75.5023,28.7805],[77.2842,29.2578],[76.4378,30.3617],[78.145,29.7363],[79.77,29.7891],[80.2104,29.9448],[80.5576,30.1348],[78.8114,31.6601],[77.9524,31.43],[78.8871,30.4953],[78.8813,30.4938],[75.4676,31.4054],[73.6703,33.2025],[74.9124,33.5353],[74.309,34.1386]],"i":[[0,0],[0,0],[0,0],[0,0],[0,0],[0,0],[0,0],[0,0],[-0.5348999999999933,0.10810000000000031],[-0.5416999999999916,-0.1451000000000029],[-0.11560000000000059,-0.056100000000000705],[-0.11199999999999477,-0.0694999999999979],[0,0],[0,0],[0,0],[0,0],[1.3588000000000022,-0.8534000000000006],[0,0],[0,0],[0,0]],"o":[[0,0],[0,0],[0,0],[0,0],[0,0],[0,0],[0,0],[0.6032000000000011,-0.30889999999999773],[0.5416000000000025,-0.10989999999999966],[0.17799999999999727,0.047699999999998965],[0.11939999999999884,0.05719999999999814],[0,0],[0,0],[0,0],[0,0],[-0.9170000000000016,-0.24569999999999936],[0,0],[0,0],[0,0],[0,0]]}}},{"ty":"sh","ks":{"a":0,"k":{"c":true,"v":[[81.3522,35.2875],[82.2884,35.4036],[83.2985,35.3133],[83.3014,35.9874],[81.9269,36.1256],[80.6464,35.9711],[79.3567,35.2592],[79.1758,34.1819],[80.057,32.8665],[81.6104,31.7474],[83.46,31.171],[85.3546,31.2853],[86.9056,32.3688],[85.8463,32.7584],[84.6934,31.9539],[83.0233,32.0344],[81.2526,33.1869],[80.4867,34.5708]],"i":[[-0.5030000000000001,-0.13479999999999848],[-0.32620000000000005,0.002400000000001512],[-0.3405000000000058,0.05600000000000449],[0,0],[0.4812000000000012,-0.00039999999999906777],[0.3791999999999973,0.10159999999999769],[0.24459999999999127,0.30980000000000274],[-0.12019999999999698,0.4095000000000013],[-0.4673999999999978,0.4673999999999978],[-0.5823999999999927,0.29290000000000305],[-0.6439999999999912,0.08960000000000079],[-0.6191000000000031,-0.16580000000000084],[-0.23690000000000566,-0.5088000000000008],[0,0],[0.5146000000000015,0.13789999999999836],[0.6025999999999954,-0.19049999999999656],[0.5778999999999996,-0.5778999999999996],[-0.0700999999999965,-0.34199999999999875]],"o":[[0.2978999999999985,0.07979999999999876],[0.3329000000000093,-0.004199999999997317],[0,0],[-0.4351999999999947,0.09179999999999922],[-0.4744000000000028,-0.0013999999999967372],[-0.6152000000000015,-0.1647999999999996],[-0.2407000000000039,-0.30870000000000175],[0.12010000000000787,-0.4095999999999975],[0.4531999999999954,-0.45309999999999917],[0.5889999999999986,-0.2945999999999991],[0.6440000000000055,-0.08960000000000079],[0.7971000000000004,0.21359999999999957],[0,0],[-0.2540000000000049,-0.3984999999999985],[-0.5108000000000033,-0.13680000000000092],[-0.6026000000000096,0.1905000000000001],[-0.5807000000000073,0.5805999999999969],[0.07399999999999807,0.3430000000000035]]}}},{"ty":"sh","ks":{"a":0,"k":{"c":true,"v":[[92.3613,30.9107],[89.8969,33.3749],[91.2874,33.0956],[92.5121,33.2029],[93.4596,33.9038],[92.9044,34.9887],[89.6456,38.2473],[88.5312,37.9488],[91.7179,34.7624],[92.062,34.1166],[91.5018,33.7349],[90.377,33.719],[89.2383,34.0334],[86.0007,37.2709],[84.8863,36.9723],[91.1577,30.7014]],"i":[[0,0],[0,0],[-0.4566000000000088,0.024900000000002365],[-0.35590000000000543,-0.09539999999999793],[-0.04349999999999454,-0.3096999999999994],[0.4164000000000101,-0.416400000000003],[0,0],[0,0],[0,0],[0.039699999999996294,0.16140000000000043],[0.3404999999999916,0.09119999999999351],[0.42480000000000473,-0.0765000000000029],[0.3382000000000005,-0.1319999999999979],[0,0],[0,0],[0,0]],"o":[[0,0],[0.47039999999999793,-0.1612999999999971],[0.46049999999999613,-0.02379999999999427],[0.5882000000000005,0.15749999999999886],[0.04630000000000223,0.30690000000000595],[0,0],[0,0],[0,0],[0.26909999999999457,-0.26910000000000167],[-0.03300000000000125,-0.16329999999999956],[-0.32500000000000284,-0.08710000000000662],[-0.42099999999999227,0.07759999999999678],[0,0],[0,0],[0,0],[0,0]]}}},{"ty":"sh","ks":{"a":0,"k":{"c":true,"v":[[89.7718,40.242],[90.4643,39.5495],[96.2682,41.1044],[95.5757,41.7969]],"i":[[0,0],[0,0],[0,0],[0,0]],"o":[[0,0],[0,0],[0,0],[0,0]]}}},{"ty":"sh","ks":{"a":0,"k":{"c":true,"v":[[107.506,37.2199],[107.99,37.4789],[108.063,37.9725],[107.454,38.7951],[104.123,42.126],[103.107,41.8539],[106.32,38.642],[106.811,38.0625],[106.614,37.7888],[105.988,37.7667],[105.118,38.0184],[101.668,41.4683],[100.693,41.207],[103.905,37.9951],[104.396,37.4157],[104.199,37.1419],[103.574,37.1198],[102.704,37.3716],[99.2536,40.8214],[98.2379,40.5493],[102.716,36.0713],[103.575,36.3014],[103.143,36.8214],[104.14,36.5389],[105.074,36.5684],[105.595,36.8642],[105.578,37.4412],[106.567,37.173]],"i":[[-0.3050000000000068,-0.08190000000000452],[-0.11299999999999955,-0.11670000000000158],[0.06999999999999318,-0.21129999999999427],[0.3400000000000034,-0.3399000000000001],[0,0],[0,0],[0,0],[-0.06700000000000728,0.12570000000000192],[0.2049999999999983,0.054899999999996396],[0.2469999999999999,-0.030900000000002592],[0.3370000000000033,-0.13589999999999947],[0,0],[0,0],[0,0],[-0.06700000000000728,0.12570000000000192],[0.2049999999999983,0.054999999999999716],[0.24200000000000443,-0.03190000000000026],[0.3370000000000033,-0.13600000000000279],[0,0],[0,0],[0,0],[0,0],[0,0],[-0.32099999999999795,0.06119999999999948],[-0.2980000000000018,-0.07979999999999876],[-0.11499999999999488,-0.134999999999998],[0.13100000000000023,-0.24860000000000326],[-0.3199999999999932,0.05059999999999576]],"o":[[0.20900000000000318,0.055999999999997385],[0.11800000000000921,0.11779999999999546],[-0.0660000000000025,0.2085000000000008],[0,0],[0,0],[0,0],[0.2600000000000051,-0.2606000000000037],[0.07299999999999329,-0.12749999999999773],[-0.17100000000000648,-0.04560000000000031],[-0.242999999999995,0.03190000000000026],[0,0],[0,0],[0,0],[0.2609999999999957,-0.2606000000000037],[0.07399999999999807,-0.12760000000000105],[-0.17399999999999238,-0.046599999999997976],[-0.242999999999995,0.03190000000000026],[0,0],[0,0],[0,0],[0,0],[0,0],[0.3439999999999941,-0.12709999999999866],[0.32500000000000284,-0.06009999999999849],[0.2330000000000041,0.06220000000000425],[0.11899999999999977,0.1361000000000061],[0.33899999999999864,-0.12819999999999965],[0.3200000000000074,-0.050600000000002865]]}}},{"ty":"sh","ks":{"a":0,"k":{"c":true,"v":[[112.737,38.6213],[114.09,39.7919],[113.071,41.679],[111.534,42.8187],[109.8,43.4046],[108.034,43.3086],[106.669,42.1348],[107.688,40.2477],[109.22,39.1065],[110.959,38.5221]],"i":[[-0.583999999999989,-0.1565999999999974],[-0.028000000000005798,-0.5461999999999989],[0.7109999999999985,-0.7109000000000023],[0.5629999999999882,-0.29809999999999803],[0.5970000000000084,-0.09150000000000347],[0.5809999999999889,0.15550000000000352],[0.036000000000001364,0.5482000000000014],[-0.7109999999999985,0.7108999999999952],[-0.5570000000000022,0.29630000000000223],[-0.5960000000000036,0.09149999999999636]],"o":[[0.8740000000000094,0.2342000000000013],[0.031999999999996476,0.5472000000000037],[-0.4609999999999985,0.46170000000000044],[-0.5590000000000117,0.2991000000000028],[-0.5969999999999942,0.09149999999999636],[-0.8740000000000094,-0.2342999999999975],[-0.0309999999999917,-0.5471999999999966],[0.4650000000000034,-0.464500000000001],[0.5630000000000024,-0.29809999999999803],[0.6009999999999991,-0.09040000000000248]]}}},{"ty":"sh","ks":{"a":0,"k":{"c":true,"v":[[112.087,39.2713],[110.533,39.3829],[108.867,40.5633],[107.965,41.9432],[108.685,42.6585],[110.228,42.5496],[111.893,41.3634],[112.795,39.9835]],"i":[[0.49499999999999034,0.13270000000000692],[0.5330000000000013,-0.20920000000000272],[0.5799999999999983,-0.5805999999999969],[0.02599999999999625,-0.34489999999999554],[-0.5030000000000001,-0.13469999999999516],[-0.5259999999999962,0.2073999999999998],[-0.5810000000000031,0.580600000000004],[-0.02400000000000091,0.34210000000000207]],"o":[[-0.5030000000000001,-0.13479999999999848],[-0.5300000000000011,0.20629999999999882],[-0.5750000000000028,0.5750000000000028],[-0.023000000000010346,0.34210000000000207],[0.5030000000000001,0.13480000000000558],[0.5300000000000011,-0.2102000000000004],[0.578000000000003,-0.5777999999999963],[0.022999999999996135,-0.34210000000000207]]}}},{"ty":"sh","ks":{"a":0,"k":{"c":true,"v":[[122.738,39.0274],[123.754,39.4236],[117.475,45.703],[116.494,45.4402],[116.975,44.8418],[114.565,45.0582],[113.552,44.4152],[113.616,43.3873],[114.59,42.0968],[116.082,40.9664],[117.743,40.3502],[119.349,40.3927],[120.435,41.3301]],"i":[[0,0],[0,0],[0,0],[0,0],[0,0],[0.7199999999999989,0.1927999999999983],[0.1489999999999867,0.28770000000000095],[-0.1839999999999975,0.39579999999999416],[-0.46399999999999864,0.464500000000001],[-0.5409999999999968,0.30040000000000333],[-0.5599999999999881,0.10859999999999559],[-0.507000000000005,-0.13579999999999615],[-0.0660000000000025,-0.4487000000000023]],"o":[[0,0],[0,0],[0,0],[0,0],[-0.8870000000000005,0.3370999999999995],[-0.5259999999999962,-0.14099999999999824],[-0.14200000000001012,-0.28949999999999676],[0.18500000000000227,-0.39580000000000126],[0.4539999999999935,-0.4532000000000025],[0.5470000000000113,-0.30219999999999914],[0.5640000000000072,-0.1075000000000017],[0.6580000000000013,0.17620000000000147],[0,0]]}}},{"ty":"sh","ks":{"a":0,"k":{"c":true,"v":[[118.997,41.1119],[117.462,41.234],[115.786,42.4171],[114.861,43.7908],[115.478,44.4839],[116.508,44.5066],[117.575,44.1894],[119.764,42.0014],[119.584,41.4523]],"i":[[0.2669999999999959,0.07160000000000366],[0.5439999999999969,-0.20990000000000464],[0.578000000000003,-0.5777999999999963],[0.04200000000000159,-0.34079999999999444],[-0.44899999999999807,-0.12019999999999698],[-0.36599999999999966,0.07090000000000174],[-0.33899999999999864,0.13870000000000005],[0,0],[0.13100000000000023,0.1535999999999973]],"o":[[-0.4789999999999992,-0.1284999999999954],[-0.5390000000000015,0.2108999999999952],[-0.5750000000000028,0.5750000000000028],[-0.03700000000000614,0.3417999999999992],[0.32100000000001216,0.08610000000000184],[0.3719999999999999,-0.07269999999999754],[0,0],[0.01100000000000989,-0.21249999999999858],[-0.12400000000000944,-0.1554000000000002]]}}},{"ty":"sh","ks":{"a":0,"k":{"c":true,"v":[[125.28,42.1163],[122.127,45.2688],[121.748,45.9427],[122.296,46.3214],[123.384,46.3596],[124.527,46.0626],[127.799,42.7912],[128.913,43.0897],[124.435,47.5677],[123.477,47.3111],[123.987,46.6988],[122.586,46.9808],[121.345,46.8747],[120.369,46.166],[120.911,45.0722],[124.166,41.8178]],"i":[[0,0],[0,0],[-0.03100000000000591,-0.16600000000000392],[-0.32900000000000773,-0.0882000000000005],[-0.4159999999999968,0.05740000000000123],[-0.3430000000000035,0.14159999999999684],[0,0],[0,0],[0,0],[0,0],[0,0],[0.47100000000000364,-0.02459999999999951],[0.35999999999999943,0.0964000000000027],[0.0589999999999975,0.3138000000000005],[-0.4170000000000016,0.41629999999999967],[0,0]],"o":[[0,0],[-0.28300000000000125,0.2832000000000008],[0.036000000000001364,0.16429999999999723],[0.30999999999998806,0.0829000000000022],[0.41899999999999693,-0.05640000000000356],[0,0],[0,0],[0,0],[0,0],[0,0],[-0.46299999999999386,0.16340000000000288],[-0.46699999999999875,0.0257000000000005],[-0.5919999999999987,-0.15859999999999985],[-0.05500000000000682,-0.31289999999999907],[0,0],[0,0]]}}},{"ty":"sh","ks":{"a":0,"k":{"c":true,"v":[[135.44,42.5544],[130.316,47.6781],[130.13,48.2101],[130.701,48.5299],[131.255,48.6301],[131.858,48.646],[131.566,49.3058],[130.757,49.3047],[129.82,49.1452],[128.798,48.4241],[129.261,47.3201],[133.706,42.8761],[131.843,42.377],[132.463,41.7567]],"i":[[0,0],[0,0],[-0.09100000000000819,-0.13939999999999486],[-0.28700000000000614,-0.07669999999999533],[-0.18799999999998818,-0.018099999999996896],[-0.20699999999999363,0.00560000000000116],[0,0],[0.30400000000000205,0.02020000000000266],[0.32200000000000273,0.08599999999999852],[0.10499999999998977,0.32629999999999626],[-0.4099999999999966,0.4107000000000056],[0,0],[0,0],[0,0]],"o":[[0,0],[-0.2150000000000034,0.21529999999999916],[0.09399999999999409,0.13650000000000517],[0.1810000000000116,0.04870000000000374],[0.19499999999999318,0.016199999999997772],[0,0],[-0.23599999999999,0.01950000000000074],[-0.30299999999999727,-0.020299999999998875],[-0.5759999999999934,-0.15450000000000585],[-0.10200000000000387,-0.3253000000000057],[0,0],[0,0],[0,0],[0,0]]}}},{"ty":"sh","ks":{"a":0,"k":{"c":true,"v":[[136.47,48.3033],[135.941,49.5244],[136.801,50.1803],[137.744,50.3038],[138.819,50.2148],[138.81,50.8641],[137.418,50.9976],[136.107,50.8295],[134.839,50.1181],[134.688,49.0327],[135.581,47.7204],[137.119,46.6025],[138.902,46.019],[140.659,46.1018],[141.927,47.1957],[140.993,48.9979],[140.766,49.2173],[140.562,49.3995]],"i":[[0,0],[-0.10900000000000887,-0.31289999999999907],[-0.4609999999999843,-0.12330000000000041],[-0.3230000000000075,-0.00039999999999906777],[-0.3930000000000007,0.05980000000000274],[0,0],[0.4749999999999943,0.0014000000000038426],[0.4029999999999916,0.10779999999999745],[0.23400000000000887,0.31050000000000466],[-0.12599999999997635,0.4113000000000042],[-0.46399999999999864,0.464500000000001],[-0.5749999999999886,0.2948999999999984],[-0.6099999999999852,0.09499999999999886],[-0.5609999999999786,-0.15029999999999433],[-0.055999999999983174,-0.5178000000000011],[0.686000000000007,-0.6854000000000013],[0.07500000000001705,-0.06980000000000075],[0.06099999999997863,-0.051700000000003854]],"o":[[-0.4619999999999891,0.5011999999999972],[0.11299999999999955,0.31389999999999674],[0.3050000000000068,0.08189999999999742],[0.3240000000000123,0.000499999999995282],[0,0],[-0.45300000000000296,0.09040000000000248],[-0.47100000000000364,-0.004199999999997317],[-0.61099999999999,-0.16380000000000194],[-0.22700000000000387,-0.31230000000000047],[0.13100000000000023,-0.41039999999999566],[0.45100000000002183,-0.4502999999999986],[0.578000000000003,-0.29399999999999693],[0.6100000000000136,-0.09509999999999508],[0.7890000000000157,0.2115000000000009],[0.0630000000000166,0.5159999999999982],[-0.0759999999999934,0.0764999999999958],[-0.07399999999998386,0.06969999999999743],[0,0]]}}},{"ty":"sh","ks":{"a":0,"k":{"c":true,"v":[[140.033,46.7422],[138.608,46.7913],[137.065,47.7085],[140.106,48.5233],[140.732,47.3821]],"i":[[0.4490000000000123,0.12020000000000408],[0.5130000000000052,-0.14990000000000236],[0.5159999999999911,-0.46160000000000423],[0,0],[0.025000000000005684,0.30449999999999733]],"o":[[-0.4369999999999834,-0.11719999999999686],[-0.5130000000000052,0.14990000000000236],[0,0],[0.4420000000000073,-0.4562999999999988],[-0.016999999999995907,-0.30640000000000356]]}}},{"ty":"st","o":{"a":0,"k":0},"w":{"a":0,"k":0},"c":{"a":0,"k":[0,0,0,0]},"lc":3,"lj":1,"ml":1},{"ty":"fl","o":{"a":0,"k":100},"r":1,"c":{"a":0,"k":[1,1,1,1]}},{"ty":"tr","o":{"a":0,"k":100},"a":{"a":0,"k":[0,0]},"s":{"a":0,"k":[100,100]},"p":{"a":0,"k":[0,0]},"r":{"a":0,"k":0}}]},{"ty":"gr","nm":"Search Module shape group","it":[{"ty":"rc","s":{"a":0,"k":[3.53087,3.53087]},"r":{"a":0,"k":0},"p":{"a":0,"k":[1.895022,2.249059]}},{"ty":"st","o":{"a":0,"k":100},"c":{"a":0,"k":[1,1,1,1]},"lc":3,"lj":1,"ml":1,"w":{"a":0,"k":1}},{"ty":"fl","o":{"a":0,"k":100},"r":1,"c":{"a":0,"k":[0,0,0,1]}},{"ty":"tr","o":{"a":0,"k":100},"a":{"a":0,"k":[0,0]},"s":{"a":0,"k":[100.1,86.7]},"p":{"a":0,"k":[50.594,2.11]},"r":{"a":0,"k":15.01149423242757}}]},{"ty":"gr","nm":"Search Module shape group","it":[{"ty":"rc","s":{"a":0,"k":[3.53087,3.53087]},"r":{"a":0,"k":0},"p":{"a":0,"k":[1.895022,2.249059]}},{"ty":"st","o":{"a":0,"k":100},"c":{"a":0,"k":[1,1,1,1]},"lc":3,"lj":1,"ml":1,"w":{"a":0,"k":1}},{"ty":"fl","o":{"a":0,"k":100},"r":1,"c":{"a":0,"k":[0,0,0,1]}},{"ty":"tr","o":{"a":0,"k":100},"a":{"a":0,"k":[0,0]},"s":{"a":0,"k":[100.1,86.7]},"p":{"a":0,"k":[19.578,33.124]},"r":{"a":0,"k":15.01149423242757}}]},{"ty":"gr","nm":"Search Module shape group","it":[{"ty":"rc","s":{"a":0,"k":[3.53087,3.53087]},"r":{"a":0,"k":0},"p":{"a":0,"k":[1.895022,2.249059]}},{"ty":"st","o":{"a":0,"k":100},"c":{"a":0,"k":[1,1,1,1]},"lc":3,"lj":1,"ml":1,"w":{"a":0,"k":1}},{"ty":"fl","o":{"a":0,"k":100},"r":1,"c":{"a":0,"k":[0,0,0,1]}},{"ty":"tr","o":{"a":0,"k":100},"a":{"a":0,"k":[0,0]},"s":{"a":0,"k":[100.1,86.7]},"p":{"a":0,"k":[203.656,82.44]},"r":{"a":0,"k":15.01149423242757}}]},{"ty":"gr","nm":"Search Module shape group","it":[{"ty":"rc","s":{"a":0,"k":[3.53087,3.53087]},"r":{"a":0,"k":0},"p":{"a":0,"k":[1.895022,2.249059]}},{"ty":"st","o":{"a":0,"k":100},"c":{"a":0,"k":[1,1,1,1]},"lc":3,"lj":1,"ml":1,"w":{"a":0,"k":1}},{"ty":"fl","o":{"a":0,"k":100},"r":1,"c":{"a":0,"k":[0,0,0,1]}},{"ty":"tr","o":{"a":0,"k":100},"a":{"a":0,"k":[0,0]},"s":{"a":0,"k":[100.1,86.7]},"p":{"a":0,"k":[233.941,51.231]},"r":{"a":0,"k":15.01149423242757}}]},{"ty":"gr","nm":"Search Module shape group","it":[{"ty":"rc","s":{"a":0,"k":[190.051,44.3087]},"r":{"a":0,"k":0},"p":{"a":0,"k":[95.155087,22.637974]}},{"ty":"st","o":{"a":0,"k":100},"c":{"a":0,"k":[1,1,1,1]},"lc":3,"lj":1,"ml":1,"w":{"a":0,"k":1}},{"ty":"fl","o":{"a":0,"k":30},"r":1,"c":{"a":0,"k":[0.08627450980392157,0.15294117647058825,0.1803921568627451,1]}},{"ty":"tr","o":{"a":0,"k":100},"a":{"a":0,"k":[0,0]},"s":{"a":0,"k":[100.1,86.7]},"p":{"a":0,"k":[50.985,3.571]},"r":{"a":0,"k":15.01149423242757}}]}],"op":180},{"ty":4,"nm":"Conteudos","ip":0,"st":0,"ind":4,"hix":2,"ks":{"o":{"a":0,"k":100},"or":{"a":0,"k":[0,0,0]},"a":{"a":0,"k":[200.5,144.5,0]},"p":{"s":true,"x":{"a":1,"k":[{"t":0,"s":[300],"e":[300],"i":{"x":[1],"y":[1]},"o":{"x":[0],"y":[0]}},{"t":4,"s":[300],"e":[292],"i":{"x":[0.515],"y":[0.955]},"o":{"x":[0.455],"y":[0.03]}},{"t":94,"s":[292],"e":[300],"i":{"x":[0.515],"y":[0.955]},"o":{"x":[0.455],"y":[0.03]}},{"t":180}]},"y":{"a":1,"k":[{"t":0,"s":[311],"e":[311],"i":{"x":[1],"y":[1]},"o":{"x":[0],"y":[0]}},{"t":4,"s":[311],"e":[259],"i":{"x":[0.515],"y":[0.955]},"o":{"x":[0.455],"y":[0.03]}},{"t":94,"s":[259],"e":[311],"i":{"x":[0.515],"y":[0.955]},"o":{"x":[0.455],"y":[0.03]}},{"t":180}]}},"rx":{"a":0,"k":0},"ry":{"a":0,"k":0},"rz":{"a":0,"k":0},"s":{"a":0,"k":[100,100,100]}},"shapes":[{"ty":"gr","nm":"Conteudos shape group","it":[{"ty":"sh","ks":{"a":0,"k":{"c":true,"v":[[214.404,11.0384],[207.904,9.29713],[211.643,8.08102],[212.061,7.82073],[212.137,7.4963],[211.827,7.29776],[211.312,7.34143],[206.165,9.0143],[206.056,9.06126],[205.965,9.10314],[205.782,9.23728],[205.676,9.39197],[205.663,9.4544],[205.652,9.52779],[205.985,12.6689],[206.067,12.8262],[206.262,12.9263],[206.705,12.928],[206.962,12.8425],[207.173,12.7085],[207.307,12.5466],[207.342,12.3815],[207.102,10.0995],[213.602,11.8407],[214.107,11.8271],[214.551,11.5864],[214.674,11.2597]],"i":[[0.14500000000001023,0.03900000000000148],[0,0],[0,0],[-0.09300000000001774,0.10965999999999987],[0.04400000000001114,0.09806999999999988],[0.15500000000000114,0.029040000000000177],[0.17499999999998295,-0.056999999999999496],[0,0],[0.03499999999999659,-0.01706000000000074],[0.0589999999999975,-0.009779999999999234],[0.04999999999998295,-0.04931999999999981],[0.02200000000001978,-0.052649999999999864],[-0.019000000000005457,-0.030329999999999302],[0,-0.024079999999999657],[0,0],[-0.04800000000000182,-0.04449999999999932],[-0.0800000000000125,-0.021399999999999864],[-0.15800000000001546,0.03339999999999854],[-0.07999999999998408,0.037700000000000955],[-0.0589999999999975,0.050799999999998846],[-0.028999999999996362,0.056100000000000705],[0.006000000000000227,0.05289999999999928],[0,0],[0,0],[-0.17799999999999727,0.04770000000000074],[-0.10699999999999932,0.10640000000000072],[0.027999999999991587,0.10280000000000022]],"o":[[0,0],[0,0],[0.17500000000001137,-0.057000000000000384],[0.09299999999998931,-0.10965999999999987],[-0.043000000000006366,-0.0980799999999995],[-0.15399999999999636,-0.029040000000000177],[0,0],[-0.03700000000000614,0.014210000000000278],[-0.020000000000010232,0.02005999999999908],[-0.07099999999999795,0.03934000000000104],[-0.049000000000006594,0.049590000000000245],[-0.01999999999998181,0.02005999999999908],[-0.007000000000005002,0.024779999999999802],[0,0],[0.006000000000000227,0.05909999999999904],[0.04800000000000182,0.04449999999999932],[0.1279999999999859,0.03450000000000131],[0.08899999999999864,-0.018800000000000594],[0.0800000000000125,-0.03769999999999918],[0.0589999999999975,-0.050700000000000855],[0.029000000000024784,-0.05609999999999893],[0,0],[0,0],[0.14500000000001023,0.0389999999999997],[0.17799999999999727,-0.047699999999998965],[0.10600000000002296,-0.10639999999999894],[-0.02800000000002001,-0.10270000000000046]]}}},{"ty":"st","o":{"a":0,"k":0},"w":{"a":0,"k":0},"c":{"a":0,"k":[0,0,0,0]},"lc":3,"lj":1,"ml":1},{"ty":"fl","o":{"a":0,"k":60},"r":1,"c":{"a":0,"k":[1,1,1,1]}},{"ty":"tr","o":{"a":0,"k":100},"a":{"a":0,"k":[0,0]},"s":{"a":0,"k":[100,100]},"p":{"a":0,"k":[0,0]},"r":{"a":0,"k":0}}]},{"ty":"gr","nm":"Conteudos shape group","it":[{"ty":"rc","s":{"a":0,"k":[24.1646,24.1646]},"r":{"a":0,"k":6},"p":{"a":0,"k":[12.0823,12.0823]}},{"ty":"st","o":{"a":0,"k":0},"w":{"a":0,"k":0},"c":{"a":0,"k":[0,0,0,0]},"lc":3,"lj":1,"ml":1},{"ty":"fl","o":{"a":0,"k":100},"r":1,"c":{"a":0,"k":[0.39215686274509803,0.42745098039215684,0.4392156862745098,1]}},{"ty":"tr","o":{"a":0,"k":100},"a":{"a":0,"k":[0,0]},"s":{"a":0,"k":[100.2,86.8]},"p":{"a":0,"k":[207.034,-1.278]},"r":{"a":0,"k":15.01149423242757}}]},{"ty":"gr","nm":"Conteudos shape group","it":[{"ty":"rc","s":{"a":0,"k":[114.782,7.55144]},"r":{"a":0,"k":3},"p":{"a":0,"k":[57.391,3.77572]}},{"ty":"st","o":{"a":0,"k":0},"w":{"a":0,"k":0},"c":{"a":0,"k":[0,0,0,0]},"lc":3,"lj":1,"ml":1},{"ty":"fl","o":{"a":0,"k":20},"r":1,"c":{"a":0,"k":[0.7686274509803922,0.7686274509803922,0.7686274509803922,1]}},{"ty":"tr","o":{"a":0,"k":100},"a":{"a":0,"k":[0,0]},"s":{"a":0,"k":[100.2,86.8]},"p":{"a":0,"k":[260.597,24.537]},"r":{"a":0,"k":15.01149423242757}}]},{"ty":"gr","nm":"Conteudos shape group","it":[{"ty":"rc","s":{"a":0,"k":[185.01,45.3087]},"r":{"a":0,"k":10},"p":{"a":0,"k":[92.505,22.65435]}},{"ty":"st","o":{"a":0,"k":0},"w":{"a":0,"k":0},"c":{"a":0,"k":[0,0,0,0]},"lc":3,"lj":1,"ml":1},{"ty":"fl","o":{"a":0,"k":20},"r":1,"c":{"a":0,"k":[0.7686274509803922,0.7686274509803922,0.7686274509803922,1]}},{"ty":"tr","o":{"a":0,"k":100},"a":{"a":0,"k":[0,0]},"s":{"a":0,"k":[100.2,86.8]},"p":{"a":0,"k":[226.474,-1.56]},"r":{"a":0,"k":15.01149423242757}}]},{"ty":"gr","nm":"Conteudos shape group","it":[{"ty":"rc","s":{"a":0,"k":[61.9218,7.55144]},"r":{"a":0,"k":3},"p":{"a":0,"k":[30.9609,3.77572]}},{"ty":"st","o":{"a":0,"k":0},"w":{"a":0,"k":0},"c":{"a":0,"k":[0,0,0,0]},"lc":3,"lj":1,"ml":1},{"ty":"fl","o":{"a":0,"k":20},"r":1,"c":{"a":0,"k":[0.7686274509803922,0.7686274509803922,0.7686274509803922,1]}},{"ty":"tr","o":{"a":0,"k":100},"a":{"a":0,"k":[0,0]},"s":{"a":0,"k":[100.2,86.8]},"p":{"a":0,"k":[164.479,101.193]},"r":{"a":0,"k":15.01149423242757}}]},{"ty":"gr","nm":"Conteudos shape group","it":[{"ty":"rc","s":{"a":0,"k":[132.905,7.55144]},"r":{"a":0,"k":3},"p":{"a":0,"k":[66.4525,3.77572]}},{"ty":"st","o":{"a":0,"k":0},"w":{"a":0,"k":0},"c":{"a":0,"k":[0,0,0,0]},"lc":3,"lj":1,"ml":1},{"ty":"fl","o":{"a":0,"k":20},"r":1,"c":{"a":0,"k":[0.7686274509803922,0.7686274509803922,0.7686274509803922,1]}},{"ty":"tr","o":{"a":0,"k":100},"a":{"a":0,"k":[0,0]},"s":{"a":0,"k":[100.2,86.8]},"p":{"a":0,"k":[173.572,92.1]},"r":{"a":0,"k":15.01149423242757}}]},{"ty":"gr","nm":"Conteudos shape group","it":[{"ty":"el","p":{"a":0,"k":[0,0]},"s":{"a":0,"k":[30.2058,30.2058]}},{"ty":"st","o":{"a":0,"k":0},"w":{"a":0,"k":0},"c":{"a":0,"k":[0,0,0,0]},"lc":3,"lj":1,"ml":1},{"ty":"fl","o":{"a":0,"k":20},"r":1,"c":{"a":0,"k":[0.7686274509803922,0.7686274509803922,0.7686274509803922,1]}},{"ty":"tr","o":{"a":0,"k":100},"a":{"a":0,"k":[0,0]},"s":{"a":0,"k":[100.2,86.8]},"p":{"a":0,"k":[143.967,92.985]},"r":{"a":0,"k":15.01149423242757}}]},{"ty":"gr","nm":"Conteudos shape group","it":[{"ty":"sh","ks":{"a":0,"k":{"c":true,"v":[[62.1642,177.774],[62.098,178.399],[57.2205,179],[59.0839,181.413],[58.1091,181.78],[56.107,179.102],[56.7446,178.464]],"i":[[0,0],[0,0],[0,0],[0,0],[0,0],[0,0],[0,0]],"o":[[0,0],[0,0],[0,0],[0,0],[0,0],[0,0],[0,0]]}}},{"ty":"sh","ks":{"a":0,"k":{"c":true,"v":[[67.6057,177.598],[67.9391,177.853],[67.7993,178.22],[67.2909,178.501],[66.6954,178.508],[66.362,178.252],[66.5172,177.876],[67.0102,177.604]],"i":[[-0.19029999999999347,-0.051000000000016144],[-0.028799999999989723,-0.117999999999995],[0.12519999999999243,-0.125],[0.2091000000000065,-0.057999999999992724],[0.19350000000000023,0.0519999999999925],[0.03200000000001069,0.12000000000000455],[-0.12990000000000634,0.12999999999999545],[-0.20349999999999113,0.055999999999983174]],"o":[[0.19350000000000023,0.05099999999998772],[0.03200000000001069,0.11899999999999977],[-0.12980000000000302,0.12999999999999545],[-0.20349999999999113,0.055999999999983174],[-0.19030000000000769,-0.051000000000016144],[-0.026399999999995316,-0.12100000000000932],[0.12519999999999243,-0.125],[0.20669999999999789,-0.05500000000000682]]}}},{"ty":"sh","ks":{"a":0,"k":{"c":true,"v":[[66.5124,179.568],[63.2964,182.784],[64.714,183.163],[64.1969,183.68],[60.2973,182.636],[60.8144,182.119],[62.3675,182.535],[65.0664,179.836],[63.5617,179.433],[64.0788,178.916]],"i":[[0,0],[0,0],[0,0],[0,0],[0,0],[0,0],[0,0],[0,0],[0,0],[0,0]],"o":[[0,0],[0,0],[0,0],[0,0],[0,0],[0,0],[0,0],[0,0],[0,0],[0,0]]}}},{"ty":"sh","ks":{"a":0,"k":{"c":true,"v":[[73.1625,181.237],[73.5662,181.453],[73.627,181.865],[73.1192,182.55],[70.3424,185.327],[69.4957,185.1],[72.1733,182.423],[72.5828,181.94],[72.4184,181.711],[71.897,181.693],[71.1718,181.903],[68.2958,184.779],[67.483,184.561],[70.1607,181.883],[70.5701,181.4],[70.4057,181.172],[69.8843,181.154],[69.1592,181.364],[66.2832,184.239],[65.4365,184.013],[69.1696,180.28],[69.8857,180.472],[69.5258,180.905],[70.3564,180.669],[71.1354,180.694],[71.5697,180.941],[71.5549,181.422],[72.3796,181.198]],"i":[[-0.2547999999999888,-0.06799999999998363],[-0.09489999999999554,-0.09700000000000841],[0.05760000000000787,-0.17700000000002092],[0.283299999999997,-0.28300000000001546],[0,0],[0,0],[0,0],[-0.05570000000000164,0.10400000000001342],[0.17089999999998895,0.04599999999999227],[0.2056999999999931,-0.02600000000001046],[0.2809999999999917,-0.11299999999999955],[0,0],[0,0],[0,0],[-0.05570000000000164,0.10499999999998977],[0.17100000000000648,0.04599999999999227],[0.20250000000000057,-0.026999999999986812],[0.2810000000000059,-0.11400000000000432],[0,0],[0,0],[0,0],[0,0],[0,0],[-0.26779999999999404,0.05099999999998772],[-0.24840000000000373,-0.0660000000000025],[-0.09600000000000364,-0.11299999999999955],[0.10909999999999798,-0.2079999999999984],[-0.2670999999999992,0.04200000000000159]],"o":[[0.17419999999999902,0.046999999999997044],[0.0981000000000023,0.09799999999998477],[-0.05519999999999925,0.17300000000000182],[0,0],[0,0],[0,0],[0.2173000000000087,-0.2179999999999893],[0.061299999999988586,-0.10699999999999932],[-0.1419000000000068,-0.038000000000010914],[-0.20240000000001146,0.026999999999986812],[0,0],[0,0],[0,0],[0.21719999999999118,-0.21700000000001296],[0.061400000000006116,-0.10599999999999454],[-0.14509999999999934,-0.03899999999998727],[-0.20239999999999725,0.02600000000001046],[0,0],[0,0],[0,0],[0,0],[0,0],[0.28589999999999804,-0.10599999999999454],[0.2709000000000117,-0.05000000000001137],[0.19350000000000023,0.05200000000002092],[0.09919999999999618,0.11299999999999955],[0.2826999999999913,-0.10699999999999932],[0.26720000000000255,-0.04200000000000159]]}}},{"ty":"sh","ks":{"a":0,"k":{"c":true,"v":[[80.087,182.657],[79.7559,183.331],[78.9732,183.243],[78.1488,183.049],[78.1114,184.233],[76.6786,185.004],[74.884,184.976],[74.4869,184.852],[74.2159,184.712],[73.6291,184.986],[73.5521,185.235],[73.9944,185.461],[74.8992,185.703],[75.7032,186.09],[75.988,186.633],[75.7044,187.217],[74.2025,187.897],[72.0629,187.705],[70.8648,187.223],[70.5616,186.661],[70.9937,185.977],[71.8307,186.202],[71.5984,186.575],[71.8029,186.886],[72.5871,187.181],[73.9212,187.35],[74.7197,187.012],[74.7975,186.547],[74.146,186.211],[73.251,185.971],[72.4523,185.488],[72.6289,184.907],[73.8524,184.395],[74.0241,183.125],[74.9619,182.519],[76.1613,182.252],[77.4067,182.374],[78.4894,182.61],[79.3113,182.678]],"i":[[-0.26839999999999975,0.014999999999986358],[0,0],[0.2592999999999961,0.051000000000016144],[0.29350000000000875,0.07899999999997931],[0.4298000000000002,-0.42900000000000205],[0.5869,-0.1449999999999818],[0.6127999999999929,0.16499999999999204],[0.10349999999999682,0.03999999999999204],[0.07959999999999923,0.051000000000016144],[0.14170000000000016,-0.1419999999999959],[-0.03130000000000166,-0.08300000000002683],[-0.2612000000000023,-0.0700000000000216],[0,0],[-0.1844999999999999,-0.1640000000000157],[-0.002200000000001978,-0.1980000000000075],[0.19359999999998934,-0.19400000000001683],[0.6304999999999978,-0.08299999999999841],[0.7967000000000013,0.21399999999999864],[0.23749999999999716,0.17099999999999227],[-0.032200000000003115,0.20400000000000773],[-0.25270000000000437,0.2529999999999859],[0,0],[0.015500000000002956,-0.10999999999998522],[-0.1541999999999888,-0.09600000000000364],[-0.370900000000006,-0.09900000000001796],[-0.340999999999994,0.033999999999991815],[-0.19120000000000914,0.1910000000000025],[0.11580000000000723,0.1419999999999959],[0.3161000000000058,0.08499999999997954],[0,0],[0.07440000000001135,0.19999999999998863],[-0.18890000000000384,0.18899999999999295],[-0.553600000000003,0.07899999999997931],[-0.46980000000000643,0.46999999999999886],[-0.370199999999997,0.1490000000000009],[-0.4239000000000033,0.026999999999986812],[-0.406400000000005,-0.10900000000000887],[-0.29930000000000234,-0.04400000000001114],[-0.24869999999999948,-0.0010000000000047748]],"o":[[0,0],[-0.26250000000000284,-0.0069999999999765805],[-0.25610000000000355,-0.05099999999998772],[0.4048000000000087,0.3599999999999852],[-0.36830000000000496,0.3689999999999998],[-0.5836000000000041,0.146000000000015],[-0.1612999999999971,-0.043000000000006366],[-0.10110000000000241,-0.04200000000000159],[-0.24950000000001182,0.04099999999999682],[-0.08259999999999934,0.08299999999999841],[0.03360000000000696,0.08099999999998886],[0,0],[0.3515000000000015,0.09499999999999886],[0.18760000000000332,0.16399999999998727],[0.004500000000007276,0.19599999999999795],[-0.3707000000000136,0.3709999999999809],[-0.6296999999999997,0.08600000000001273],[-0.5611999999999995,-0.15000000000000568],[-0.23430000000000462,-0.1710000000000207],[0.03539999999999566,-0.20300000000000296],[0,0],[-0.13929999999999154,0.13900000000001],[-0.017899999999997362,0.11200000000002319],[0.15190000000001191,0.09700000000000841],[0.5482999999999976,0.14699999999999136],[0.3410999999999973,-0.033999999999991815],[0.1676999999999964,-0.16800000000000637],[-0.11820000000000164,-0.13900000000001],[0,0],[-0.4579999999999984,-0.1220000000000141],[-0.07119999999999038,-0.19900000000001228],[0.26200000000000045,-0.26200000000000045],[-0.35540000000000305,-0.37700000000000955],[0.25509999999999877,-0.25499999999999545],[0.3756999999999948,-0.15100000000001046],[0.42379999999999995,-0.02800000000002001],[0.42249999999999943,0.11299999999999955],[0.299199999999999,0.044999999999987494],[0.24869999999999948,0.0010000000000047748]]}}},{"ty":"sh","ks":{"a":0,"k":{"c":true,"v":[[76.9298,182.857],[75.8397,182.861],[74.9724,183.379],[74.6593,184.054],[75.2951,184.516],[76.2985,184.507],[77.1857,183.963]],"i":[[0.715999999999994,0.19200000000000728],[0.3429000000000002,-0.10499999999998977],[0.24090000000001055,-0.24099999999998545],[-0.0367999999999995,-0.20400000000000773],[-0.38700000000000045,-0.10299999999998022],[-0.3269999999999982,0.09799999999998477],[-0.2644999999999982,0.26400000000001]],"o":[[-0.3837999999999937,-0.10300000000000864],[-0.33729999999999905,0.10500000000001819],[-0.24549999999999272,0.24600000000000932],[0.0367999999999995,0.20499999999998408],[0.34189999999999543,0.09200000000001296],[0.3269999999999982,-0.09800000000001319],[0.5454000000000008,-0.5449999999999875]]}}},{"ty":"sh","ks":{"a":0,"k":{"c":true,"v":[[82.0823,183.11],[84.1266,185.796],[83.4855,186.437],[78.1045,187.137],[78.1178,186.516],[83.0024,185.908],[81.1355,183.499]],"i":[[0,0],[0,0],[0,0],[0,0],[0,0],[0,0],[0,0]],"o":[[0,0],[0,0],[0,0],[0,0],[0,0],[0,0],[0,0]]}}},{"ty":"sh","ks":{"a":0,"k":{"c":true,"v":[[57.4572,189.634],[56.9401,190.151],[55.9572,190.036],[55.2287,190.385],[54.0338,191.825],[53.1329,192.468],[52.0406,192.548],[52.5617,193.051],[52.0504,193.808],[50.4684,195.144],[50.3363,195.657],[51.089,196.002],[50.5719,196.519],[49.5873,196.13],[49.1893,195.583],[49.6865,194.841],[51.1679,193.598],[51.4978,193.17],[51.3152,192.807],[50.4664,192.472],[51.0119,191.927],[52.0271,192.095],[52.7021,191.966],[53.1903,191.576],[54.298,190.229],[55.1822,189.591],[56.2743,189.443]],"i":[[-0.39990000000000236,-0.10699999999999932],[0,0],[0.3102000000000018,-0.01500000000001478],[0.1810999999999936,-0.2179999999999893],[0,0],[0.3316999999999979,-0.10299999999998022],[0.402000000000001,0.04800000000000182],[-0.02690000000000481,-0.18899999999999295],[0.3732999999999933,-0.3160000000000025],[0,0],[-0.15350000000000108,-0.13700000000000045],[-0.3451999999999984,-0.09200000000001296],[0,0],[0.2563999999999993,0.15200000000001523],[0.008899999999997021,0.21199999999998909],[-0.3370999999999995,0.2839999999999918],[0,0],[-0.03439999999999799,0.1290000000000191],[0.1617999999999995,0.11200000000002319],[0.4063999999999979,0.10899999999998045],[0,0],[-0.2703999999999951,-0.002999999999985903],[-0.17960000000000065,0.09000000000000341],[-0.14269999999999783,0.17199999999999704],[0,0],[-0.339500000000001,0.117999999999995],[-0.3885999999999967,-0.020000000000010232]],"o":[[0,0],[-0.3451000000000022,-0.09200000000001296],[-0.30449999999999733,0.014999999999986358],[0,0],[-0.26890000000000214,0.32600000000002183],[-0.32620000000000005,0.10099999999999909],[0.32050000000000267,0.14599999999998658],[0.03249999999999886,0.18900000000002137],[0,0],[-0.24150000000000205,0.20499999999998408],[0.15670000000000073,0.1379999999999768],[0,0],[-0.3999999999999986,-0.10699999999999932],[-0.2563999999999993,-0.1529999999999916],[-0.00560000000000116,-0.2109999999999843],[0,0],[0.18549999999999756,-0.1560000000000059],[0.03999999999999915,-0.12999999999999545],[-0.1594999999999942,-0.1139999999999759],[0,0],[0.406400000000005,0.10900000000000887],[0.2704000000000022,0.003999999999990678],[0.1828000000000003,-0.08800000000002228],[0,0],[0.25,-0.30700000000001637],[0.3393999999999977,-0.11899999999999977],[0.38870000000000005,0.020999999999986585]]}}},{"ty":"sh","ks":{"a":0,"k":{"c":true,"v":[[62.2133,191.676],[63.0608,192.007],[57.8259,197.241],[57.0082,197.022],[57.409,196.523],[55.4005,196.704],[54.5563,196.168],[54.6097,195.311],[55.4217,194.235],[56.6646,193.293],[58.0494,192.779],[59.3881,192.815],[60.2936,193.596]],"i":[[0,0],[0,0],[0,0],[0,0],[0,0],[0.5998999999999981,0.1599999999999966],[0.12420000000000186,0.23999999999998067],[-0.15409999999999968,0.3299999999999841],[-0.3873000000000033,0.38700000000000045],[-0.450800000000001,0.25],[-0.4667999999999992,0.09100000000000819],[-0.42249999999999943,-0.11400000000000432],[-0.055299999999995464,-0.3739999999999952]],"o":[[0,0],[0,0],[0,0],[0,0],[-0.7391000000000005,0.2810000000000059],[-0.438600000000001,-0.117999999999995],[-0.11849999999999739,-0.24200000000001864],[0.1541000000000068,-0.3300000000000125],[0.3778000000000006,-0.3780000000000143],[0.45649999999999835,-0.25200000000000955],[0.46999999999999886,-0.08899999999999864],[0.5484000000000009,0.146000000000015],[0,0]]}}},{"ty":"sh","ks":{"a":0,"k":{"c":true,"v":[[59.0952,193.414],[57.8157,193.516],[56.4183,194.502],[55.6474,195.647],[56.1614,196.225],[57.0198,196.244],[57.9099,195.98],[59.734,194.156],[59.5844,193.698]],"i":[[0.2225999999999999,0.060000000000002274],[0.45309999999999917,-0.17499999999998295],[0.48169999999999646,-0.48100000000002296],[0.03460000000000463,-0.2839999999999918],[-0.37409999999999854,-0.09999999999999432],[-0.30449999999999733,0.0589999999999975],[-0.283299999999997,0.1150000000000091],[0,0],[0.1092000000000013,0.1279999999999859]],"o":[[-0.39989999999999526,-0.10699999999999932],[-0.4498999999999995,0.17600000000001614],[-0.47930000000000206,0.478999999999985],[-0.03149999999999409,0.2849999999999966],[0.26769999999999783,0.07200000000000273],[0.3101000000000056,-0.06100000000000705],[0,0],[0.009399999999999409,-0.1769999999999925],[-0.10350000000000392,-0.12999999999999545]]}}},{"ty":"sh","ks":{"a":0,"k":{"c":true,"v":[[64.2866,197.885],[64.0576,198.237],[64.2136,198.468],[63.5284,198.877],[63.0711,198.561],[63.062,198.092],[61.9722,198.298],[60.9267,198.184],[60.0311,197.54],[60.4254,196.582],[61.9373,195.855],[64.0426,196.019],[64.7829,196.218],[65.0662,195.934],[65.3007,195.301],[64.5976,194.906],[63.9468,194.79],[63.0662,194.738],[63.325,194.179],[64.4174,194.234],[65.2869,194.395],[66.4283,195.118],[66.0257,196.147]],"i":[[0,0],[0.003900000000001569,-0.08599999999998431],[-0.10559999999999548,-0.07099999999999795],[0,0],[0.09380000000000166,0.12699999999998113],[-0.08459999999999468,0.1869999999999834],[0.3680000000000021,-0.012000000000000455],[0.3290000000000006,0.08799999999999386],[0.08429999999999893,0.2920000000000016],[-0.3471000000000046,0.3470000000000084],[-0.6206999999999994,0.09700000000000841],[-0.7772999999999897,-0.2079999999999984],[0,0],[0,0],[0.10099999999999909,0.16500000000002046],[0.370900000000006,0.09999999999999432],[0.2628999999999948,0.03200000000001069],[0.32739999999999725,0.003999999999990678],[0,0],[-0.32800000000000296,-0.040000000000020464],[-0.25159999999999627,-0.06700000000000728],[-0.10619999999998697,-0.30699999999998795],[0.3777999999999935,-0.3779999999999859]],"o":[[-0.14870000000000516,0.1490000000000009],[-0.001599999999996271,0.08400000000000318],[0,0],[-0.21099999999999852,-0.08400000000000318],[-0.09069999999999823,-0.12600000000000477],[-0.3584999999999994,0.125],[-0.3680000000000021,0.012000000000000455],[-0.5127999999999986,-0.13700000000000045],[-0.08420000000000272,-0.2920000000000016],[0.3872999999999962,-0.38800000000000523],[0.6261999999999972,-0.09899999999998954],[0,0],[0,0],[0.25740000000000407,-0.257000000000005],[-0.09780000000000655,-0.16399999999998727],[-0.17090000000000316,-0.04599999999999227],[-0.25970000000000226,-0.030000000000001137],[0,0],[0.4001999999999981,-0.0030000000000143245],[0.3281000000000063,0.03999999999999204],[0.6547999999999945,0.17499999999998295],[0.10940000000000794,0.3079999999999927],[0,0]]}}},{"ty":"sh","ks":{"a":0,"k":{"c":true,"v":[[61.698,197.744],[62.5148,197.792],[63.4369,197.564],[64.3401,196.66],[63.6628,196.479],[62.3143,196.374],[61.4301,196.828]],"i":[[-0.6225000000000023,-0.16599999999999682],[-0.3091000000000008,0.03100000000000591],[-0.30239999999999867,0.1220000000000141],[0,0],[0,0],[0.3602999999999952,-0.07399999999998386],[0.2313999999999936,-0.23099999999999454]],"o":[[0.23550000000000182,0.06299999999998818],[0.31230000000000047,-0.030000000000001137],[0,0],[0,0],[-0.5386999999999986,-0.14400000000000546],[-0.3581000000000003,0.07099999999999795],[-0.4439000000000064,0.4439999999999884]]}}},{"ty":"sh","ks":{"a":0,"k":{"c":true,"v":[[69.805,200.208],[68.9499,200.235],[68.1076,200.108],[67.1272,199.432],[67.5237,198.465],[69.663,196.326],[68.5067,196.016],[69.0167,195.506],[70.173,195.816],[71.016,194.973],[72.0264,195.141],[71.102,196.065],[72.8437,196.532],[72.2272,197.013],[70.5919,196.575],[68.4597,198.707],[68.2086,199.228],[68.7737,199.577],[69.3374,199.67],[69.9135,199.658]],"i":[[0,0],[0.3044000000000011,0.018999999999977035],[0.25799999999999557,0.0689999999999884],[0.0858999999999952,0.2990000000000066],[-0.34710000000001173,0.3470000000000084],[0,0],[0,0],[0,0],[0,0],[0,0],[0,0],[0,0],[0,0],[0,0],[0,0],[0,0],[-0.038000000000010914,-0.1419999999999959],[-0.33550000000001035,-0.09000000000000341],[-0.18880000000000052,-0.012000000000000455],[-0.18970000000000198,0.018000000000000682]],"o":[[-0.2656000000000063,0.03700000000000614],[-0.30349999999999966,-0.01500000000001478],[-0.5677000000000021,-0.15200000000001523],[-0.08280000000000598,-0.29699999999999704],[0,0],[0,0],[0,0],[0,0],[0,0],[0,0],[0,0],[0,0],[0,0],[0,0],[0,0],[-0.20539999999999736,0.20600000000001728],[0.041299999999992565,0.14300000000000068],[0.1869999999999976,0.05000000000001137],[0.19429999999999836,0.010000000000019327],[0,0]]}}},{"ty":"sh","ks":{"a":0,"k":{"c":true,"v":[[75.8906,200.994],[75.6615,201.346],[75.8176,201.576],[75.1323,201.986],[74.675,201.67],[74.666,201.201],[73.5762,201.407],[72.5307,201.293],[71.6351,200.649],[72.0294,199.69],[73.5413,198.964],[75.6466,199.128],[76.3868,199.327],[76.6702,199.043],[76.9047,198.41],[76.2016,198.015],[75.5508,197.899],[74.6702,197.847],[74.929,197.288],[76.0214,197.343],[76.8909,197.504],[78.0323,198.227],[77.6297,199.255]],"i":[[0,0],[0.003999999999990678,-0.08600000000001273],[-0.10559999999999548,-0.06999999999999318],[0,0],[0.09390000000000498,0.12700000000000955],[-0.08459999999999468,0.18600000000000705],[0.367999999999995,-0.012000000000000455],[0.32900000000000773,0.08799999999999386],[0.08420000000000982,0.2920000000000016],[-0.3470999999999975,0.3470000000000084],[-0.6207000000000136,0.09700000000000841],[-0.777300000000011,-0.2079999999999984],[0,0],[0,0],[0.10099999999999909,0.16499999999999204],[0.370900000000006,0.09900000000001796],[0.2629000000000019,0.03200000000001069],[0.32730000000000814,0.003999999999990678],[0,0],[-0.3281000000000063,-0.03999999999999204],[-0.25159999999999627,-0.06799999999998363],[-0.10620000000000118,-0.30700000000001637],[0.3777999999999935,-0.37700000000000955]],"o":[[-0.14870000000000516,0.1490000000000009],[-0.001600000000010482,0.08299999999999841],[0,0],[-0.2108999999999952,-0.08400000000000318],[-0.0905999999999949,-0.12599999999997635],[-0.3585999999999956,0.125],[-0.367999999999995,0.012000000000000455],[-0.5127999999999986,-0.13700000000000045],[-0.08419999999999561,-0.2920000000000016],[0.3873000000000104,-0.38700000000000045],[0.6261999999999972,-0.09899999999998954],[0,0],[0,0],[0.25740000000000407,-0.257000000000005],[-0.09780000000000655,-0.16399999999998727],[-0.17099999999999227,-0.04599999999999227],[-0.25969999999999516,-0.03100000000000591],[0,0],[0.4001999999999981,-0.004000000000019099],[0.3281000000000063,0.040000000000020464],[0.6547999999999945,0.17500000000001137],[0.10939999999999372,0.3079999999999927],[0,0]]}}},{"ty":"sh","ks":{"a":0,"k":{"c":true,"v":[[73.302,200.853],[74.1188,200.901],[75.0409,200.672],[75.9441,199.769],[75.2668,199.588],[73.9182,199.482],[73.0341,199.937]],"i":[[-0.6225000000000023,-0.1670000000000016],[-0.3090999999999866,0.03099999999997749],[-0.3024999999999949,0.12299999999999045],[0,0],[0,0],[0.3603999999999985,-0.07400000000001228],[0.23140000000000782,-0.23100000000002296]],"o":[[0.2354999999999876,0.06299999999998818],[0.31230000000000757,-0.030000000000001137],[0,0],[0,0],[-0.5387000000000057,-0.1449999999999818],[-0.3580000000000041,0.07200000000000273],[-0.4438999999999993,0.4439999999999884]]}}},{"ty":"sh","ks":{"a":0,"k":{"c":true,"v":[[78.7315,202.124],[79.44,201.734],[80.2567,201.715],[80.7076,202.074],[80.5071,202.599],[79.7867,202.995],[78.9568,203.015],[78.5191,202.655]],"i":[[-0.18179999999999552,0.1810000000000116],[-0.2927999999999997,0.07999999999998408],[-0.24839999999998952,-0.06700000000000728],[-0.04579999999999984,-0.1710000000000207],[0.17950000000000443,-0.17900000000000205],[0.2985000000000042,-0.08199999999999363],[0.254800000000003,0.06800000000001205],[0.043500000000008754,0.17300000000000182]],"o":[[0.17950000000000443,-0.18000000000000682],[0.2960999999999956,-0.07900000000000773],[0.254800000000003,0.06799999999998363],[0.04579999999999984,0.17099999999999227],[-0.18179999999999552,0.18200000000001637],[-0.2984000000000009,0.08099999999998886],[-0.2483000000000004,-0.06699999999997885],[-0.04019999999999868,-0.17199999999999704]]}}},{"ty":"sh","ks":{"a":0,"k":{"c":true,"v":[[90.3753,198.965],[90.7087,199.221],[90.5689,199.588],[90.0605,199.869],[89.465,199.876],[89.1316,199.62],[89.2868,199.244],[89.7798,198.972]],"i":[[-0.19029999999999347,-0.051000000000016144],[-0.028799999999989723,-0.11899999999999977],[0.12520000000000664,-0.12600000000000477],[0.2090999999999923,-0.057999999999992724],[0.19350000000000023,0.05099999999998772],[0.031999999999996476,0.11899999999999977],[-0.12980000000000302,0.12999999999999545],[-0.20349999999999113,0.055999999999983174]],"o":[[0.19350000000000023,0.0519999999999925],[0.03200000000001069,0.11899999999999977],[-0.12980000000000302,0.1290000000000191],[-0.20350000000000534,0.056000000000011596],[-0.19030000000000769,-0.051000000000016144],[-0.026400000000009527,-0.12100000000000932],[0.12520000000000664,-0.125],[0.2067000000000121,-0.05500000000000682]]}}},{"ty":"sh","ks":{"a":0,"k":{"c":true,"v":[[89.282,200.936],[86.066,204.151],[87.4836,204.531],[86.9665,205.048],[83.0669,204.004],[83.5841,203.487],[85.1371,203.903],[87.836,201.204],[86.3313,200.801],[86.8484,200.284]],"i":[[0,0],[0,0],[0,0],[0,0],[0,0],[0,0],[0,0],[0,0],[0,0],[0,0]],"o":[[0,0],[0,0],[0,0],[0,0],[0,0],[0,0],[0,0],[0,0],[0,0],[0,0]]}}},{"ty":"sh","ks":{"a":0,"k":{"c":true,"v":[[95.9322,202.605],[96.3358,202.821],[96.3967,203.232],[95.8888,203.918],[93.112,206.695],[92.2653,206.468],[94.943,203.79],[95.3524,203.307],[95.188,203.079],[94.6666,203.061],[93.9414,203.271],[91.0654,206.146],[90.2526,205.929],[92.9303,203.251],[93.3398,202.768],[93.1753,202.54],[92.6539,202.522],[91.9288,202.731],[89.0528,205.607],[88.2061,205.38],[91.9392,201.648],[92.6553,201.839],[92.2954,202.273],[93.126,202.037],[93.905,202.062],[94.3393,202.309],[94.3245,202.79],[95.1493,202.566]],"i":[[-0.25489999999999213,-0.06799999999998363],[-0.09490000000000975,-0.09700000000000841],[0.05750000000000455,-0.17599999999998772],[0.2834000000000003,-0.28300000000001546],[0,0],[0,0],[0,0],[-0.05570000000000164,0.10500000000001819],[0.17090000000000316,0.04599999999999227],[0.2056999999999931,-0.02600000000001046],[0.2809999999999917,-0.1139999999999759],[0,0],[0,0],[0,0],[-0.055799999999990746,0.10499999999998977],[0.17100000000000648,0.04600000000002069],[0.20250000000000057,-0.026999999999986812],[0.2810000000000059,-0.11299999999999955],[0,0],[0,0],[0,0],[0,0],[0,0],[-0.26780000000000825,0.05099999999998772],[-0.24840000000000373,-0.06700000000000728],[-0.09599999999998943,-0.11299999999999955],[0.10909999999999798,-0.2079999999999984],[-0.26720000000000255,0.04200000000000159]],"o":[[0.1741000000000099,0.046999999999997044],[0.0981999999999914,0.09800000000001319],[-0.05530000000000257,0.1740000000000066],[0,0],[0,0],[0,0],[0.2172000000000054,-0.21699999999998454],[0.061399999999991905,-0.10599999999999454],[-0.1419000000000068,-0.038000000000010914],[-0.20239999999999725,0.025999999999982037],[0,0],[0,0],[0,0],[0.21719999999999118,-0.21700000000001296],[0.0613000000000028,-0.10599999999999454],[-0.14509999999999934,-0.03899999999998727],[-0.20239999999999725,0.02600000000001046],[0,0],[0,0],[0,0],[0,0],[0,0],[0.28589999999999804,-0.10599999999999454],[0.2708999999999975,-0.05000000000001137],[0.19350000000000023,0.0519999999999925],[0.09920000000001039,0.11299999999999955],[0.2827000000000055,-0.10699999999999932],[0.2670999999999992,-0.04200000000000159]]}}},{"ty":"sh","ks":{"a":0,"k":{"c":true,"v":[[99.0986,207.212],[98.8695,207.564],[99.0256,207.794],[98.3403,208.203],[97.883,207.888],[97.874,207.418],[96.7842,207.625],[95.7387,207.511],[94.8431,206.867],[95.2374,205.908],[96.7492,205.181],[98.8546,205.346],[99.5948,205.544],[99.8782,205.261],[100.113,204.628],[99.4096,204.233],[98.7588,204.117],[97.8781,204.065],[98.1369,203.506],[99.2294,203.56],[100.099,203.721],[101.24,204.445],[100.838,205.473]],"i":[[0,0],[0.0040000000000048885,-0.08599999999998431],[-0.1056999999999988,-0.0700000000000216],[0,0],[0.09390000000000498,0.12699999999998113],[-0.084699999999998,0.1869999999999834],[0.3679000000000059,-0.01300000000000523],[0.32900000000000773,0.08799999999999386],[0.08419999999999561,0.2920000000000016],[-0.3470999999999975,0.3470000000000084],[-0.620599999999996,0.09799999999998477],[-0.7774000000000001,-0.2079999999999984],[0,0],[0,0],[0.10099999999999909,0.1640000000000157],[0.370900000000006,0.09899999999998954],[0.2629000000000019,0.03100000000000591],[0.32739999999999725,0.003999999999990678],[0,0],[-0.32809999999999206,-0.03999999999999204],[-0.2516999999999996,-0.06700000000000728],[-0.10599999999999454,-0.30699999999998795],[0.37700000000000955,-0.3780000000000143]],"o":[[-0.14880000000000848,0.1490000000000009],[-0.001599999999996271,0.08299999999999841],[0,0],[-0.21099999999999852,-0.08299999999999841],[-0.09069999999999823,-0.12600000000000477],[-0.3585999999999956,0.12600000000000477],[-0.367999999999995,0.012000000000000455],[-0.5128999999999877,-0.13800000000000523],[-0.08420000000000982,-0.2920000000000016],[0.3872000000000071,-0.38700000000000045],[0.6263000000000005,-0.09800000000001319],[0,0],[0,0],[0.2577999999999889,-0.2580000000000098],[-0.09799999999999898,-0.16399999999998727],[-0.17099999999999227,-0.04599999999999227],[-0.2597999999999985,-0.03099999999997749],[0,0],[0.40030000000000143,-0.003999999999990678],[0.32800000000000296,0.03999999999999204],[0.6550000000000011,0.17599999999998772],[0.10999999999999943,0.30700000000001637],[0,0]]}}},{"ty":"sh","ks":{"a":0,"k":{"c":true,"v":[[96.51,207.071],[97.3267,207.119],[98.2489,206.89],[99.1521,205.987],[98.4747,205.805],[97.1262,205.7],[96.2421,206.155]],"i":[[-0.6225000000000023,-0.1670000000000016],[-0.3089999999999975,0.03100000000000591],[-0.3025000000000091,0.1220000000000141],[0,0],[0,0],[0.3603999999999985,-0.07399999999998386],[0.23140000000000782,-0.23199999999999932]],"o":[[0.2353999999999985,0.06299999999998818],[0.31229999999999336,-0.030000000000001137],[0,0],[0,0],[-0.5386000000000024,-0.14400000000000546],[-0.3580000000000041,0.07200000000000273],[-0.4438999999999993,0.4439999999999884]]}}},{"ty":"sh","ks":{"a":0,"k":{"c":true,"v":[[108.659,205.579],[108.327,206.254],[107.545,206.165],[106.72,205.971],[106.683,207.156],[105.25,207.926],[103.456,207.899],[103.059,207.774],[102.787,207.634],[102.201,207.908],[102.124,208.157],[102.566,208.383],[103.471,208.626],[104.275,209.012],[104.56,209.555],[104.276,210.139],[102.774,210.819],[100.635,210.628],[99.4364,210.145],[99.1332,209.583],[99.5653,208.9],[100.402,209.124],[100.17,209.497],[100.375,209.808],[101.159,210.103],[102.493,210.272],[103.291,209.934],[103.369,209.47],[102.718,209.133],[101.823,208.894],[101.024,208.41],[101.2,207.829],[102.424,207.317],[102.596,206.047],[103.534,205.441],[104.733,205.174],[105.978,205.296],[107.061,205.533],[107.883,205.6]],"i":[[-0.26900000000000546,0.014999999999986358],[0,0],[0.25900000000000034,0.05200000000002092],[0.29399999999999693,0.07900000000000773],[0.4299999999999926,-0.4300000000000068],[0.5870000000000033,-0.1449999999999818],[0.6119999999999948,0.16399999999998727],[0.10300000000000864,0.03999999999999204],[0.0799999999999983,0.05200000000002092],[0.14100000000000534,-0.14099999999999113],[-0.031999999999996476,-0.08299999999999841],[-0.2609999999999957,-0.0700000000000216],[0,0],[-0.18500000000000227,-0.16300000000001091],[-0.0030000000000001137,-0.1980000000000075],[0.19400000000000261,-0.19300000000001205],[0.6310000000000002,-0.08199999999999363],[0.7959999999999923,0.21300000000002228],[0.23749999999999716,0.17099999999999227],[-0.032200000000003115,0.20400000000000773],[-0.25269999999999015,0.25199999999998113],[0,0],[0.016000000000005343,-0.10900000000000887],[-0.15500000000000114,-0.09499999999999886],[-0.3710000000000093,-0.09900000000001796],[-0.340999999999994,0.03499999999999659],[-0.1910000000000025,0.1910000000000025],[0.11599999999999966,0.14099999999999113],[0.3160000000000025,0.08499999999997954],[0,0],[0.07399999999999807,0.20000000000001705],[-0.1880000000000024,0.18899999999999295],[-0.554000000000002,0.07899999999997931],[-0.46999999999999886,0.46999999999999886],[-0.3710000000000093,0.1490000000000009],[-0.4240000000000066,0.026999999999986812],[-0.4059999999999917,-0.10800000000000409],[-0.2990000000000066,-0.044999999999987494],[-0.24899999999999523,-0.0010000000000047748]],"o":[[0,0],[-0.26200000000000045,-0.007999999999981355],[-0.2560000000000002,-0.04999999999998295],[0.40500000000000114,0.3599999999999852],[-0.3680000000000092,0.367999999999995],[-0.5829999999999984,0.146000000000015],[-0.16200000000000614,-0.04400000000001114],[-0.10200000000000387,-0.04200000000000159],[-0.24900000000000944,0.04100000000002524],[-0.08299999999999841,0.08300000000002683],[0.03300000000000125,0.08099999999998886],[0,0],[0.3509999999999991,0.09399999999999409],[0.1869999999999976,0.16399999999998727],[0.003999999999990678,0.19599999999999795],[-0.3709999999999951,0.3709999999999809],[-0.6299999999999955,0.08600000000001273],[-0.5620000000000118,-0.15099999999998204],[-0.23430000000000462,-0.1710000000000207],[0.03539999999999566,-0.20300000000000296],[0,0],[-0.1389999999999958,0.13900000000001],[-0.018000000000000682,0.11199999999999477],[0.15099999999999625,0.09800000000001319],[0.5479999999999876,0.14699999999999136],[0.3410000000000082,-0.033999999999991815],[0.16800000000000637,-0.16800000000000637],[-0.117999999999995,-0.13999999999998636],[0,0],[-0.4579999999999984,-0.12300000000001887],[-0.07099999999999795,-0.1980000000000075],[0.262999999999991,-0.26200000000000045],[-0.355000000000004,-0.37700000000000955],[0.25499999999999545,-0.25499999999999545],[0.375,-0.15100000000001046],[0.4239999999999924,-0.027000000000015234],[0.4230000000000018,0.11400000000000432],[0.2989999999999924,0.04400000000001114],[0.24900000000000944,0.0010000000000047748]]}}},{"ty":"sh","ks":{"a":0,"k":{"c":true,"v":[[105.501,205.779],[104.411,205.784],[103.544,206.301],[103.231,206.976],[103.867,207.439],[104.87,207.429],[105.757,206.885]],"i":[[0.715999999999994,0.19200000000000728],[0.3430000000000035,-0.10599999999999454],[0.24099999999999966,-0.24099999999998545],[-0.03699999999999193,-0.20400000000000773],[-0.38700000000000045,-0.103999999999985],[-0.3269999999999982,0.09799999999998477],[-0.26400000000001,0.2650000000000148]],"o":[[-0.3830000000000098,-0.10200000000000387],[-0.3370000000000033,0.10400000000001342],[-0.2459999999999951,0.24600000000000932],[0.03700000000000614,0.2050000000000125],[0.34199999999999875,0.09100000000000819],[0.3269999999999982,-0.09800000000001319],[0.5459999999999923,-0.5449999999999875]]}}},{"ty":"sh","ks":{"a":0,"k":{"c":true,"v":[[108.472,208.735],[108.031,209.753],[108.748,210.3],[109.535,210.403],[110.431,210.329],[110.423,210.87],[109.263,210.981],[108.17,210.841],[107.113,210.248],[106.987,209.343],[107.732,208.249],[109.013,207.318],[110.5,206.831],[111.964,206.9],[113.021,207.812],[112.243,209.314],[112.054,209.497],[111.883,209.649]],"i":[[0,0],[-0.09100000000000819,-0.2609999999999957],[-0.38400000000000034,-0.10300000000000864],[-0.269999999999996,0],[-0.32800000000000296,0.04999999999998295],[0,0],[0.394999999999996,0.0010000000000047748],[0.33499999999999375,0.09000000000000341],[0.1950000000000074,0.25900000000001455],[-0.10499999999998977,0.34300000000001774],[-0.38800000000000523,0.38800000000000523],[-0.4789999999999992,0.24499999999997613],[-0.5090000000000003,0.07900000000000773],[-0.4680000000000035,-0.125],[-0.046999999999997044,-0.43200000000001637],[0.570999999999998,-0.570999999999998],[0.06199999999999761,-0.058000000000021146],[0.05200000000000671,-0.043000000000006366]],"o":[[-0.3849999999999909,0.41799999999997794],[0.09399999999999409,0.26200000000000045],[0.25499999999999545,0.06799999999998363],[0.26900000000000546,0],[0,0],[-0.3780000000000001,0.07499999999998863],[-0.3930000000000007,-0.002999999999985903],[-0.5100000000000051,-0.13599999999999568],[-0.18999999999999773,-0.2599999999999909],[0.10900000000000887,-0.34199999999998454],[0.375,-0.375],[0.4819999999999993,-0.24600000000000932],[0.5079999999999956,-0.07899999999997931],[0.6580000000000013,0.17599999999998772],[0.05299999999999727,0.4299999999999784],[-0.06399999999999295,0.06399999999999295],[-0.06300000000000239,0.057999999999992724],[0,0]]}}},{"ty":"sh","ks":{"a":0,"k":{"c":true,"v":[[111.442,207.434],[110.254,207.475],[108.968,208.24],[111.504,208.919],[112.026,207.967]],"i":[[0.375,0.09999999999999432],[0.42799999999999727,-0.125],[0.4299999999999926,-0.3850000000000193],[0,0],[0.020000000000010232,0.2539999999999907]],"o":[[-0.3639999999999901,-0.09799999999998477],[-0.4270000000000067,0.125],[0,0],[0.367999999999995,-0.3810000000000002],[-0.015000000000000568,-0.2550000000000239]]}}},{"ty":"sh","ks":{"a":0,"k":{"c":true,"v":[[118.299,205.934],[119.283,206.324],[119.677,206.869],[119.184,207.613],[117.699,208.859],[117.418,209.484],[118.404,209.982],[117.859,210.527],[116.5,210.401],[115.677,210.881],[114.573,212.224],[113.689,212.863],[112.596,213.01],[111.413,212.819],[111.931,212.302],[112.905,212.42],[113.642,212.069],[114.837,210.629],[115.745,209.979],[116.915,209.937],[116.331,209.399],[116.82,208.646],[118.402,207.309],[118.526,206.799],[117.782,206.451]],"i":[[0,0],[-0.2560000000000002,-0.15300000000002],[-0.006000000000000227,-0.21100000000001273],[0.3370000000000033,-0.2839999999999918],[0,0],[-0.0940000000000083,-0.1810000000000116],[-0.563999999999993,-0.1519999999999868],[0,0],[0.34199999999999875,-0.06700000000000728],[0.20999999999999375,-0.25499999999999545],[0,0],[0.33900000000001285,-0.11899999999999977],[0.3889999999999958,0.021000000000015007],[0.4000000000000057,0.10699999999999932],[0,0],[-0.30400000000000205,0.014000000000010004],[-0.18299999999999272,0.21999999999999886],[0,0],[-0.32200000000000273,0.09299999999998931],[-0.4520000000000124,-0.06700000000000728],[0.036000000000001364,0.2009999999999934],[-0.35899999999999466,0.3020000000000209],[0,0],[0.1570000000000107,0.13800000000000523],[0.34499999999999886,0.09300000000001774]],"o":[[0.3999999999999915,0.10800000000000409],[0.257000000000005,0.1519999999999868],[0.007999999999995566,0.21199999999998909],[0,0],[-0.2809999999999917,0.23599999999999],[0.09299999999998931,0.1799999999999784],[0,0],[-0.5649999999999977,-0.15099999999998204],[-0.33899999999999864,0.06499999999999773],[0,0],[-0.25,0.30700000000001637],[-0.3399999999999892,0.11899999999999977],[-0.38800000000000523,-0.01999999999998181],[0,0],[0.34499999999999886,0.09300000000001774],[0.3079999999999927,-0.013999999999981583],[0,0],[0.28300000000000125,-0.3400000000000034],[0.32799999999998875,-0.09500000000002728],[-0.3539999999999992,-0.1570000000000107],[-0.03300000000000125,-0.19999999999998863],[0,0],[0.23900000000000432,-0.20199999999999818],[-0.15099999999999625,-0.13900000000001],[0,0]]}}},{"ty":"sh","ks":{"a":0,"k":{"c":true,"v":[[34.0438,207.507],[33.5431,207.063],[34.5623,206.559],[32.0186,203.184],[32.6561,202.546],[38.0758,201.856],[38.0096,202.48],[33.1321,203.082],[35.4622,206.113],[44.4747,201.653],[44.9515,202.109]],"i":[[0,0],[0,0],[0,0],[0,0],[0,0],[0,0],[0,0],[0,0],[0,0],[0,0],[0,0]],"o":[[0,0],[0,0],[0,0],[0,0],[0,0],[0,0],[0,0],[0,0],[0,0],[0,0],[0,0]]}}},{"ty":"sh","ks":{"a":0,"k":{"c":true,"v":[[49.323,203.235],[49.6564,203.49],[49.5166,203.857],[49.0082,204.138],[48.4127,204.145],[48.0793,203.889],[48.2345,203.513],[48.7275,203.241]],"i":[[-0.19030000000000058,-0.051000000000016144],[-0.028799999999996828,-0.117999999999995],[0.12520000000000664,-0.125],[0.2090999999999994,-0.05700000000001637],[0.19350000000000023,0.0519999999999925],[0.031999999999996476,0.11999999999997613],[-0.12979999999999592,0.12999999999999545],[-0.20349999999999824,0.05699999999998795]],"o":[[0.19350000000000023,0.0519999999999925],[0.03200000000000358,0.12000000000000455],[-0.12979999999999592,0.12999999999999545],[-0.20350000000000534,0.05699999999998795],[-0.19030000000000058,-0.051000000000016144],[-0.02640000000000242,-0.12000000000000455],[0.12519999999999953,-0.125],[0.20669999999999789,-0.05500000000000682]]}}},{"ty":"sh","ks":{"a":0,"k":{"c":true,"v":[[48.2297,205.205],[45.0137,208.421],[46.4313,208.801],[45.9142,209.318],[42.0146,208.273],[42.5317,207.756],[44.0848,208.172],[46.7837,205.473],[45.279,205.07],[45.7961,204.553]],"i":[[0,0],[0,0],[0,0],[0,0],[0,0],[0,0],[0,0],[0,0],[0,0],[0,0]],"o":[[0,0],[0,0],[0,0],[0,0],[0,0],[0,0],[0,0],[0,0],[0,0],[0,0]]}}},{"ty":"sh","ks":{"a":0,"k":{"c":true,"v":[[54.8799,206.874],[55.2835,207.09],[55.3444,207.502],[54.8365,208.188],[52.0597,210.964],[51.213,210.737],[53.8907,208.06],[54.3001,207.577],[54.1357,207.349],[53.6143,207.33],[52.8891,207.54],[50.0131,210.416],[49.2003,210.198],[51.878,207.521],[52.2875,207.038],[52.123,206.809],[51.6016,206.791],[50.8765,207.001],[48.0005,209.877],[47.1538,209.65],[50.8869,205.917],[51.603,206.109],[51.2431,206.542],[52.0737,206.307],[52.8527,206.331],[53.287,206.578],[53.2722,207.059],[54.097,206.835]],"i":[[-0.25489999999999924,-0.06799999999998363],[-0.09489999999999554,-0.09700000000000841],[0.05749999999999744,-0.17600000000001614],[0.2834000000000003,-0.2839999999999918],[0,0],[0,0],[0,0],[-0.05570000000000164,0.10499999999998977],[0.17090000000000316,0.045000000000015916],[0.20570000000000022,-0.02600000000001046],[0.2809999999999988,-0.11299999999999955],[0,0],[0,0],[0,0],[-0.05580000000000496,0.103999999999985],[0.17099999999999937,0.04599999999999227],[0.20250000000000057,-0.026999999999986812],[0.2809999999999988,-0.11299999999999955],[0,0],[0,0],[0,0],[0,0],[0,0],[-0.26780000000000115,0.051000000000016144],[-0.24839999999999662,-0.0660000000000025],[-0.09599999999999653,-0.11299999999999955],[0.10910000000000508,-0.20699999999999363],[-0.26720000000000255,0.042999999999977945]],"o":[[0.1741000000000028,0.046999999999997044],[0.09820000000000562,0.09899999999998954],[-0.05530000000000257,0.17399999999997817],[0,0],[0,0],[0,0],[0.21719999999999828,-0.21700000000001296],[0.06139999999999901,-0.10599999999999454],[-0.1418999999999997,-0.03799999999998249],[-0.20239999999999725,0.026999999999986812],[0,0],[0,0],[0,0],[0.21719999999999828,-0.2179999999999893],[0.06129999999999569,-0.10699999999999932],[-0.14509999999999934,-0.038000000000010914],[-0.20239999999999725,0.027000000000015234],[0,0],[0,0],[0,0],[0,0],[0,0],[0.28590000000000515,-0.10599999999999454],[0.2708999999999975,-0.04999999999998295],[0.19350000000000023,0.05200000000002092],[0.09920000000000329,0.11299999999999955],[0.2827000000000055,-0.10699999999999932],[0.2670999999999992,-0.04200000000000159]]}}},{"ty":"sh","ks":{"a":0,"k":{"c":true,"v":[[61.8044,208.294],[61.4732,208.969],[60.6905,208.88],[59.8661,208.686],[59.8287,209.871],[58.396,210.641],[56.6013,210.614],[56.2042,210.489],[55.9332,210.349],[55.3464,210.623],[55.2694,210.872],[55.7117,211.098],[56.6165,211.341],[57.4205,211.727],[57.7053,212.27],[57.4217,212.854],[55.9198,213.534],[53.7802,213.343],[52.5821,212.86],[52.2789,212.298],[52.711,211.615],[53.548,211.839],[53.3157,212.212],[53.5202,212.523],[54.3044,212.818],[55.6385,212.987],[56.4371,212.649],[56.5148,212.185],[55.8633,211.848],[54.9683,211.609],[54.1696,211.125],[54.3462,210.544],[55.5697,210.032],[55.7415,208.762],[56.6792,208.156],[57.8786,207.889],[59.124,208.011],[60.2067,208.248],[61.0286,208.315]],"i":[[-0.26850000000000307,0.014999999999986358],[0,0],[0.2593000000000032,0.0519999999999925],[0.29359999999999786,0.07899999999997931],[0.4298000000000002,-0.4300000000000068],[0.5867999999999967,-0.1449999999999818],[0.6128,0.16399999999998727],[0.10349999999999682,0.03999999999999204],[0.07959999999999923,0.05200000000002092],[0.14170000000000016,-0.14099999999999113],[-0.031299999999994554,-0.08300000000002683],[-0.2612000000000023,-0.0700000000000216],[0,0],[-0.18439999999999657,-0.16300000000001091],[-0.002200000000001978,-0.1980000000000075],[0.19359999999999644,-0.19300000000001205],[0.6304999999999978,-0.08199999999999363],[0.7967000000000013,0.21300000000002228],[0.23750000000000426,0.17099999999999227],[-0.032200000000003115,0.20400000000000773],[-0.25269999999999726,0.25199999999998113],[0,0],[0.015500000000002956,-0.10899999999998045],[-0.154200000000003,-0.09499999999999886],[-0.3708999999999989,-0.09900000000001796],[-0.3410000000000011,0.03499999999999659],[-0.19129999999999825,0.1910000000000025],[0.11580000000000013,0.14099999999999113],[0.3160999999999987,0.08499999999997954],[0,0],[0.07439999999999714,0.19999999999998863],[-0.18890000000000384,0.18899999999999295],[-0.5535999999999959,0.07899999999997931],[-0.46990000000000265,0.46999999999999886],[-0.37010000000000076,0.1490000000000009],[-0.42389999999999617,0.026999999999986812],[-0.406400000000005,-0.10800000000000409],[-0.29929999999999524,-0.044999999999987494],[-0.24869999999999948,-0.0010000000000047748]],"o":[[0,0],[-0.26249999999999574,-0.007999999999981355],[-0.25610000000000355,-0.04999999999998295],[0.4048999999999978,0.3599999999999852],[-0.36829999999999785,0.367999999999995],[-0.5836000000000041,0.146000000000015],[-0.16130000000000422,-0.043000000000006366],[-0.10110000000000241,-0.04200000000000159],[-0.2494999999999976,0.04099999999999682],[-0.08259999999999934,0.08299999999999841],[0.03359999999999985,0.08099999999998886],[0,0],[0.3515000000000015,0.09399999999999409],[0.18760000000000332,0.16399999999998727],[0.0045000000000001705,0.19599999999999795],[-0.37069999999999936,0.3709999999999809],[-0.6296999999999997,0.08600000000001273],[-0.5611999999999995,-0.15099999999998204],[-0.2342999999999975,-0.1710000000000207],[0.03540000000000276,-0.20300000000000296],[0,0],[-0.13929999999999865,0.13900000000001],[-0.017899999999997362,0.11200000000002319],[0.1518999999999977,0.09800000000001319],[0.5484000000000009,0.14699999999999136],[0.3410999999999973,-0.033999999999991815],[0.1676000000000002,-0.16800000000000637],[-0.11820000000000164,-0.14000000000001478],[0,0],[-0.4579999999999984,-0.12300000000001887],[-0.07120000000000459,-0.1980000000000075],[0.26209999999999667,-0.26200000000000045],[-0.35539999999999594,-0.37700000000000955],[0.25499999999999545,-0.25499999999999545],[0.37579999999999814,-0.15100000000001046],[0.42379999999999995,-0.027000000000015234],[0.42249999999999943,0.11400000000000432],[0.299199999999999,0.04400000000001114],[0.24869999999999948,0.0010000000000047748]]}}},{"ty":"sh","ks":{"a":0,"k":{"c":true,"v":[[58.6471,208.494],[57.557,208.499],[56.6897,209.016],[56.3766,209.691],[57.0124,210.154],[58.0158,210.144],[58.903,209.6]],"i":[[0.7160999999999973,0.19200000000000728],[0.3429000000000002,-0.10599999999999454],[0.24089999999999634,-0.23999999999998067],[-0.036800000000006605,-0.20400000000000773],[-0.38700000000000045,-0.103999999999985],[-0.3269999999999982,0.09799999999998477],[-0.2644999999999982,0.2650000000000148]],"o":[[-0.3838000000000008,-0.10200000000000387],[-0.33729999999999905,0.10400000000001342],[-0.24549999999999983,0.24600000000000932],[0.0367999999999995,0.20499999999998408],[0.34190000000000254,0.09100000000000819],[0.3269999999999982,-0.09800000000001319],[0.5455000000000041,-0.5449999999999875]]}}},{"ty":"sh","ks":{"a":0,"k":{"c":true,"v":[[63.7996,208.748],[65.8439,211.433],[65.2028,212.074],[59.8218,212.774],[59.8352,212.154],[64.7197,211.545],[62.8528,209.136]],"i":[[0,0],[0,0],[0,0],[0,0],[0,0],[0,0],[0,0]],"o":[[0,0],[0,0],[0,0],[0,0],[0,0],[0,0],[0,0]]}}},{"ty":"st","o":{"a":0,"k":0},"w":{"a":0,"k":0},"c":{"a":0,"k":[0,0,0,0]},"lc":3,"lj":1,"ml":1},{"ty":"fl","o":{"a":0,"k":100},"r":1,"c":{"a":0,"k":[1,1,1,1]}},{"ty":"tr","o":{"a":0,"k":100},"a":{"a":0,"k":[0,0]},"s":{"a":0,"k":[100,100]},"p":{"a":0,"k":[0,0]},"r":{"a":0,"k":0}}]},{"ty":"gr","nm":"Conteudos shape group","it":[{"ty":"sh","ks":{"a":0,"k":{"c":true,"v":[[198.192,169.519],[212.024,165.813],[209.884,157.828],[196.053,161.534]],"i":[[-4.409999999999997,-1.1820000000000164],[-3.2290000000000134,3.2280000000000086],[4.411000000000001,1.1809999999999832],[3.2280000000000086,-3.22799999999998]],"o":[[4.411000000000001,1.1809999999999832],[3.2280000000000086,-3.228999999999985],[-4.409999999999997,-1.1820000000000164],[-3.228999999999985,3.2280000000000086]]}}},{"ty":"st","o":{"a":0,"k":40},"c":{"a":0,"k":[1,1,1,1]},"lc":2,"lj":2,"ml":1,"w":{"a":0,"k":3}},{"ty":"fl","o":{"a":0,"k":0},"c":{"a":0,"k":[0,0,0,0]},"r":1},{"ty":"tr","o":{"a":0,"k":100},"a":{"a":0,"k":[0,0]},"s":{"a":0,"k":[100,100]},"p":{"a":0,"k":[0,0]},"r":{"a":0,"k":0}}]},{"ty":"gr","nm":"Conteudos shape group","it":[{"ty":"sh","ks":{"a":0,"k":{"c":false,"v":[[198.574,189.386],[221.497,183.244],[226.97,184.71],[231.639,202.133],[230.769,204.44],[219.187,216.021],[212.483,217.817],[145.692,199.924],[144.655,196.054],[153.514,187.196]],"i":[[0,0],[0,0],[-0.40500000000000114,-1.5109999999999957],[0,0],[0.7510000000000048,-0.7510000000000048],[0,0],[2.1370000000000005,0.5729999999999791],[0,0],[-1.563999999999993,1.563999999999993],[0,0]],"o":[[0,0],[2.617999999999995,-0.7019999999999982],[0,0],[0.1939999999999884,0.7259999999999991],[0,0],[-1.5649999999999977,1.5650000000000261],[0,0],[-2.1370000000000005,-0.5730000000000075],[0,0],[0,0]]}}},{"ty":"sh","ks":{"a":0,"k":{"c":true,"v":[[230.879,204.33],[268.082,167.13],[267.045,163.259],[200.255,145.366],[193.551,147.162],[156.457,184.253],[161.061,188.026],[190.981,180.009],[196.455,181.476],[201.123,198.899],[203.03,200.462],[224.175,206.126]],"i":[[-1.5649999999999977,1.5649999999999977],[0,0],[2.137999999999977,0.5730000000000075],[0,0],[1.5650000000000261,-1.5649999999999977],[0,0],[-4.223000000000013,1.1319999999999766],[0,0],[-0.40500000000000114,-1.5120000000000005],[0,0],[-1.0270000000000152,-0.27499999999997726],[0,0]],"o":[[0,0],[1.5649999999999977,-1.5649999999999977],[0,0],[-2.1380000000000052,-0.5730000000000075],[0,0],[-2.524000000000001,2.524000000000001],[0,0],[2.617999999999995,-0.7009999999999934],[0,0],[0.1950000000000216,0.7249999999999943],[0,0],[2.1370000000000005,0.5730000000000075]]}}},{"ty":"st","o":{"a":0,"k":40},"c":{"a":0,"k":[1,1,1,1]},"lc":2,"lj":2,"ml":1,"w":{"a":0,"k":3}},{"ty":"fl","o":{"a":0,"k":0},"c":{"a":0,"k":[0,0,0,0]},"r":1},{"ty":"tr","o":{"a":0,"k":100},"a":{"a":0,"k":[0,0]},"s":{"a":0,"k":[100,100]},"p":{"a":0,"k":[0,0]},"r":{"a":0,"k":0}}]},{"ty":"gr","nm":"Conteudos shape group","it":[{"ty":"rc","s":{"a":0,"k":[192.562,149.519]},"r":{"a":0,"k":10},"p":{"a":0,"k":[96.281,74.7595]}},{"ty":"st","o":{"a":0,"k":0},"w":{"a":0,"k":0},"c":{"a":0,"k":[0,0,0,0]},"lc":3,"lj":1,"ml":1},{"ty":"fl","o":{"a":0,"k":15},"r":1,"c":{"a":0,"k":[0.7686274509803922,0.7686274509803922,0.7686274509803922,1]}},{"ty":"tr","o":{"a":0,"k":100},"a":{"a":0,"k":[0,0]},"s":{"a":0,"k":[100.2,86.8]},"p":{"a":0,"k":[111.165,107.256]},"r":{"a":0,"k":15.01149423242757}}]}],"op":180},{"ty":4,"nm":"Terceiro placa","ip":0,"st":0,"ind":3,"hix":4,"ks":{"o":{"a":0,"k":100},"or":{"a":0,"k":[0,0,0]},"a":{"a":0,"k":[236,172.5,0]},"p":{"s":true,"x":{"a":1,"k":[{"t":0,"s":[284],"e":[300],"i":{"x":[0.515],"y":[0.955]},"o":{"x":[0.455],"y":[0.03]}},{"t":90,"s":[300],"e":[284],"i":{"x":[0.515],"y":[0.955]},"o":{"x":[0.455],"y":[0.03]}},{"t":180}]},"y":{"a":1,"k":[{"t":0,"s":[355],"e":[279],"i":{"x":[0.515],"y":[0.955]},"o":{"x":[0.455],"y":[0.03]}},{"t":90,"s":[279],"e":[355],"i":{"x":[0.515],"y":[0.955]},"o":{"x":[0.455],"y":[0.03]}},{"t":180}]}},"rx":{"a":0,"k":0},"ry":{"a":0,"k":0},"rz":{"a":0,"k":0},"s":{"a":0,"k":[100,100,100]}},"shapes":[{"ty":"gr","nm":"Terceiro placa shape group","it":[{"ty":"rc","s":{"a":0,"k":[197.603,428.677]},"r":{"a":0,"k":24},"p":{"a":0,"k":[98.93093300000001,214.821551]}},{"ty":"st","o":{"a":0,"k":10},"c":{"a":0,"k":[1,1,1,1]},"lc":3,"lj":1,"ml":1,"w":{"a":0,"k":1}},{"ty":"fl","o":{"a":0,"k":0},"c":{"a":0,"k":[0,0,0,0]},"r":1},{"ty":"tr","o":{"a":0,"k":100},"a":{"a":0,"k":[0,0]},"s":{"a":0,"k":[100,86.6]},"p":{"a":0,"k":[292.361,-5.211]},"r":{"a":0,"k":15.01149423242757}}]},{"ty":"gr","nm":"Terceiro placa shape group","it":[{"ty":"rc","s":{"a":0,"k":[198.603,429.677]},"r":{"a":0,"k":25},"p":{"a":0,"k":[99.3015,214.8385]}},{"ty":"st","o":{"a":0,"k":0},"w":{"a":0,"k":0},"c":{"a":0,"k":[0,0,0,0]},"lc":3,"lj":1,"ml":1},{"ty":"gf","o":{"a":0,"k":20},"r":1,"g":{"p":0,"k":{"a":0,"k":[]}},"t":1,"s":{"a":0,"k":[167.455,151.749]},"e":{"a":0,"k":[-4.24974,178.517]}},{"ty":"tr","o":{"a":0,"k":100},"a":{"a":0,"k":[0,0]},"s":{"a":0,"k":[100,86.6]},"p":{"a":0,"k":[292.015,-5.319]},"r":{"a":0,"k":15.01149423242757}}]}],"op":180},{"ty":4,"nm":"Primeira placa","ip":0,"st":0,"ind":2,"hix":6,"ks":{"o":{"a":0,"k":100},"or":{"a":0,"k":[0,0,0]},"a":{"a":0,"k":[272,208.5,0]},"p":{"s":true,"x":{"a":1,"k":[{"t":0,"s":[300],"e":[300],"i":{"x":[1],"y":[1]},"o":{"x":[0],"y":[0]}},{"t":5,"s":[300],"e":[315],"i":{"x":[0.515],"y":[0.955]},"o":{"x":[0.455],"y":[0.03]}},{"t":95,"s":[315],"e":[300],"i":{"x":[0.515],"y":[0.955]},"o":{"x":[0.455],"y":[0.03]}},{"t":180}]},"y":{"a":1,"k":[{"t":0,"s":[437.5],"e":[437.5],"i":{"x":[1],"y":[1]},"o":{"x":[0],"y":[0]}},{"t":5,"s":[437.5],"e":[391.5],"i":{"x":[0.515],"y":[0.955]},"o":{"x":[0.455],"y":[0.03]}},{"t":95,"s":[391.5],"e":[437.5],"i":{"x":[0.515],"y":[0.955]},"o":{"x":[0.455],"y":[0.03]}},{"t":180}]}},"rx":{"a":0,"k":0},"ry":{"a":0,"k":0},"rz":{"a":0,"k":0},"s":{"a":0,"k":[100,100,100]}},"shapes":[{"ty":"gr","nm":"Primeira placa shape group","it":[{"ty":"rc","s":{"a":0,"k":[197.603,428.677]},"r":{"a":0,"k":24},"p":{"a":0,"k":[98.930929,214.821536]}},{"ty":"st","o":{"a":0,"k":100},"c":{"a":0,"k":[1,1,1,0]},"lc":3,"lj":1,"ml":1,"w":{"a":0,"k":1}},{"ty":"gf","o":{"a":0,"k":100},"r":1,"g":{"p":1,"k":{"a":0,"k":[0.755208,0.08627450980392157,0.1568627450980392,0.1803921568627451]}},"t":1,"s":{"a":0,"k":[99.3015,0]},"e":{"a":0,"k":[99.3015,429.677]}},{"ty":"tr","o":{"a":0,"k":100},"a":{"a":0,"k":[0,0]},"s":{"a":0,"k":[100,86.6]},"p":{"a":0,"k":[328.359,16.794]},"r":{"a":0,"k":15.01149423242757}}]}],"op":180},{"ty":4,"nm":"Segunda Placa","ip":0,"st":0,"ind":1,"hix":5,"ks":{"o":{"a":0,"k":100},"or":{"a":0,"k":[0,0,0]},"a":{"a":0,"k":[236,172.5,0]},"p":{"s":true,"x":{"a":1,"k":[{"t":0,"s":[292],"e":[292],"i":{"x":[1],"y":[1]},"o":{"x":[0],"y":[0]}},{"t":2,"s":[292],"e":[300],"i":{"x":[0.515],"y":[0.955]},"o":{"x":[0.455],"y":[0.03]}},{"t":92,"s":[300],"e":[292],"i":{"x":[0.515],"y":[0.955]},"o":{"x":[0.455],"y":[0.03]}},{"t":180}]},"y":{"a":1,"k":[{"t":0,"s":[390.5],"e":[390.5],"i":{"x":[1],"y":[1]},"o":{"x":[0],"y":[0]}},{"t":2,"s":[390.5],"e":[331],"i":{"x":[0.515],"y":[0.955]},"o":{"x":[0.455],"y":[0.03]}},{"t":92,"s":[331],"e":[390.5],"i":{"x":[0.515],"y":[0.955]},"o":{"x":[0.455],"y":[0.03]}},{"t":180}]}},"rx":{"a":0,"k":0},"ry":{"a":0,"k":0},"rz":{"a":0,"k":0},"s":{"a":0,"k":[100,100,100]}},"shapes":[{"ty":"gr","nm":"Segunda Placa shape group","it":[{"ty":"rc","s":{"a":0,"k":[197.603,428.677]},"r":{"a":0,"k":24},"p":{"a":0,"k":[98.93093300000001,214.821551]}},{"ty":"st","o":{"a":0,"k":10},"c":{"a":0,"k":[1,1,1,1]},"lc":3,"lj":1,"ml":1,"w":{"a":0,"k":1}},{"ty":"fl","o":{"a":0,"k":0},"c":{"a":0,"k":[0,0,0,0]},"r":1},{"ty":"tr","o":{"a":0,"k":100},"a":{"a":0,"k":[0,0]},"s":{"a":0,"k":[100,86.6]},"p":{"a":0,"k":[292.361,-5.211]},"r":{"a":0,"k":15.01149423242757}}]},{"ty":"gr","nm":"Segunda Placa shape group","it":[{"ty":"rc","s":{"a":0,"k":[198.603,429.677]},"r":{"a":0,"k":25},"p":{"a":0,"k":[99.3015,214.8385]}},{"ty":"st","o":{"a":0,"k":0},"w":{"a":0,"k":0},"c":{"a":0,"k":[0,0,0,0]},"lc":3,"lj":1,"ml":1},{"ty":"fl","o":{"a":0,"k":40},"r":1,"c":{"a":0,"k":[0.08627450980392157,0.1607843137254902,0.1803921568627451,1]}},{"ty":"tr","o":{"a":0,"k":100},"a":{"a":0,"k":[0,0]},"s":{"a":0,"k":[100,86.6]},"p":{"a":0,"k":[292.015,-5.319]},"r":{"a":0,"k":15.01149423242757}}]}],"op":180}],"op":180,"w":600,"h":650}